svm_type c_svc
kernel_type rbf
gamma 0.02
nr_class 2
total_sv 1529
rho -0.518525
label 1 -1
nr_sv 807 722
SV
1 1:0 2:1 3:2 4:3 5:4 6:5 7:6 8:7 9:8 10:9 11:10 12:11 13:12 14:13 15:14 16:15 17:16 18:17 19:18 20:19 21:16 22:20 23:21 24:18 25:22 26:8 27:23 28:24 29:25 30:26 31:27 32:28 33:29 34:30 35:31 36:32 37:33 
1 1:2 2:1 3:2 4:3 5:4 6:5 7:6 8:7 9:8 10:9 11:10 12:11 13:12 14:13 15:14 16:15 17:16 18:17 19:18 20:19 21:16 22:20 23:21 24:18 25:22 26:8 27:23 28:24 29:25 30:26 31:27 32:28 33:29 34:30 35:31 36:32 37:33 
1 1:3 2:1 3:2 4:3 5:4 6:5 7:6 8:7 9:8 10:9 11:10 12:11 13:12 14:13 15:14 16:15 17:16 18:17 19:18 20:19 21:16 22:20 23:21 24:18 25:22 26:8 27:23 28:24 29:25 30:26 31:27 32:28 33:29 34:30 35:31 36:32 37:33 
1 1:9 2:1 3:2 4:3 5:4 6:5 7:6 8:7 9:8 10:9 11:10 12:11 13:12 14:13 15:14 16:15 17:16 18:17 19:18 20:19 21:16 22:20 23:21 24:18 25:22 26:8 27:23 28:24 29:25 30:26 31:27 32:28 33:29 34:30 35:31 36:32 37:33 
1 1:10 2:1 3:2 4:3 5:4 6:5 7:6 8:7 9:8 10:9 11:10 12:11 13:12 14:13 15:14 16:15 17:16 18:17 19:18 20:19 21:16 22:20 23:21 24:18 25:22 26:8 27:23 28:24 29:25 30:26 31:27 32:28 33:29 34:30 35:31 36:32 37:33 
1 1:11 2:1 3:2 4:3 5:4 6:5 7:6 8:7 9:8 10:9 11:10 12:11 13:12 14:13 15:14 16:15 17:16 18:17 19:18 20:19 21:16 22:20 23:21 24:18 25:22 26:8 27:23 28:24 29:25 30:26 31:27 32:28 33:29 34:30 35:31 36:32 37:33 
1 1:13 2:1 3:2 4:3 5:4 6:5 7:6 8:7 9:8 10:9 11:10 12:11 13:12 14:13 15:14 16:15 17:16 18:17 19:18 20:19 21:16 22:20 23:21 24:18 25:22 26:8 27:23 28:24 29:25 30:26 31:27 32:28 33:29 34:30 35:31 36:32 37:33 
1 1:14 2:1 3:2 4:3 5:4 6:5 7:6 8:7 9:8 10:9 11:10 12:11 13:12 14:13 15:14 16:15 17:16 18:17 19:18 20:19 21:16 22:20 23:21 24:18 25:22 26:8 27:23 28:24 29:25 30:26 31:27 32:28 33:29 34:30 35:31 36:32 37:33 
1 1:16 2:1 3:2 4:3 5:4 6:5 7:6 8:7 9:8 10:9 11:10 12:11 13:12 14:13 15:14 16:15 17:16 18:17 19:18 20:19 21:16 22:20 23:21 24:18 25:22 26:8 27:23 28:24 29:25 30:26 31:27 32:28 33:29 34:30 35:31 36:32 37:33 
1 1:20 2:1 3:2 4:3 5:4 6:5 7:6 8:7 9:8 10:9 11:10 12:11 13:12 14:13 15:14 16:15 17:16 18:17 19:18 20:19 21:16 22:20 23:21 24:18 25:22 26:8 27:23 28:24 29:25 30:26 31:27 32:28 33:29 34:30 35:31 36:32 37:33 
1 1:21 2:1 3:2 4:3 5:4 6:5 7:6 8:7 9:8 10:9 11:10 12:11 13:12 14:13 15:14 16:15 17:16 18:17 19:18 20:19 21:16 22:20 23:21 24:18 25:22 26:8 27:23 28:24 29:25 30:26 31:27 32:28 33:29 34:30 35:31 36:32 37:33 
1 1:26 2:1 3:2 4:3 5:4 6:5 7:6 8:7 9:8 10:9 11:10 12:11 13:12 14:13 15:14 16:15 17:16 18:17 19:18 20:19 21:16 22:20 23:21 24:18 25:22 26:8 27:23 28:24 29:25 30:26 31:27 32:28 33:29 34:30 35:31 36:32 37:33 
1 1:27 2:1 3:2 4:3 5:4 6:5 7:6 8:7 9:8 10:9 11:10 12:11 13:12 14:13 15:14 16:15 17:16 18:17 19:18 20:19 21:16 22:20 23:21 24:18 25:22 26:8 27:23 28:24 29:25 30:26 31:27 32:28 33:29 34:30 35:31 36:32 37:33 
1 1:28 2:1 3:2 4:3 5:4 6:5 7:6 8:7 9:8 10:9 11:10 12:11 13:12 14:13 15:14 16:15 17:16 18:17 19:18 20:19 21:16 22:20 23:21 24:18 25:22 26:8 27:23 28:24 29:25 30:26 31:27 32:28 33:29 34:30 35:31 36:32 37:33 
0.3364239233570642 1:30 2:1 3:2 4:3 5:4 6:5 7:6 8:7 9:8 10:9 11:10 12:11 13:12 14:13 15:14 16:15 17:16 18:17 19:18 20:19 21:16 22:20 23:21 24:18 25:22 26:8 27:23 28:24 29:25 30:26 31:27 32:28 33:29 34:30 35:31 36:32 37:33 
0.1950052203066147 1:35 2:1 3:2 4:3 5:4 6:5 7:6 8:7 9:8 10:9 11:10 12:11 13:12 14:13 15:14 16:15 17:16 18:17 19:18 20:19 21:16 22:20 23:21 24:18 25:22 26:8 27:23 28:24 29:25 30:26 31:27 32:28 33:29 34:30 35:31 36:32 37:33 
1 1:2 2:34 3:35 4:3 5:36 6:37 7:38 8:31 9:39 10:40 11:8 12:24 13:41 14:42 15:43 16:44 17:45 18:8 19:46 20:24 21:47 22:2 23:48 24:49 25:3 26:50 27:51 
1 1:3 2:34 3:35 4:3 5:36 6:37 7:38 8:31 9:39 10:40 11:8 12:24 13:41 14:42 15:43 16:44 17:45 18:8 19:46 20:24 21:47 22:2 23:48 24:49 25:3 26:50 27:51 
1 1:6 2:34 3:35 4:3 5:36 6:37 7:38 8:31 9:39 10:40 11:8 12:24 13:41 14:42 15:43 16:44 17:45 18:8 19:46 20:24 21:47 22:2 23:48 24:49 25:3 26:50 27:51 
0.7536550764486984 1:7 2:34 3:35 4:3 5:36 6:37 7:38 8:31 9:39 10:40 11:8 12:24 13:41 14:42 15:43 16:44 17:45 18:8 19:46 20:24 21:47 22:2 23:48 24:49 25:3 26:50 27:51 
1 1:11 2:34 3:35 4:3 5:36 6:37 7:38 8:31 9:39 10:40 11:8 12:24 13:41 14:42 15:43 16:44 17:45 18:8 19:46 20:24 21:47 22:2 23:48 24:49 25:3 26:50 27:51 
1 1:12 2:34 3:35 4:3 5:36 6:37 7:38 8:31 9:39 10:40 11:8 12:24 13:41 14:42 15:43 16:44 17:45 18:8 19:46 20:24 21:47 22:2 23:48 24:49 25:3 26:50 27:51 
1 1:13 2:34 3:35 4:3 5:36 6:37 7:38 8:31 9:39 10:40 11:8 12:24 13:41 14:42 15:43 16:44 17:45 18:8 19:46 20:24 21:47 22:2 23:48 24:49 25:3 26:50 27:51 
1 1:18 2:34 3:35 4:3 5:36 6:37 7:38 8:31 9:39 10:40 11:8 12:24 13:41 14:42 15:43 16:44 17:45 18:8 19:46 20:24 21:47 22:2 23:48 24:49 25:3 26:50 27:51 
1 1:19 2:34 3:35 4:3 5:36 6:37 7:38 8:31 9:39 10:40 11:8 12:24 13:41 14:42 15:43 16:44 17:45 18:8 19:46 20:24 21:47 22:2 23:48 24:49 25:3 26:50 27:51 
1 1:21 2:34 3:35 4:3 5:36 6:37 7:38 8:31 9:39 10:40 11:8 12:24 13:41 14:42 15:43 16:44 17:45 18:8 19:46 20:24 21:47 22:2 23:48 24:49 25:3 26:50 27:51 
1 1:23 2:34 3:35 4:3 5:36 6:37 7:38 8:31 9:39 10:40 11:8 12:24 13:41 14:42 15:43 16:44 17:45 18:8 19:46 20:24 21:47 22:2 23:48 24:49 25:3 26:50 27:51 
0.03768844496919813 1:24 2:34 3:35 4:3 5:36 6:37 7:38 8:31 9:39 10:40 11:8 12:24 13:41 14:42 15:43 16:44 17:45 18:8 19:46 20:24 21:47 22:2 23:48 24:49 25:3 26:50 27:51 
1 1:1 2:52 3:53 4:54 5:55 6:56 7:16 8:48 9:44 10:57 11:58 12:59 13:3 14:60 15:31 16:61 17:8 18:62 19:63 20:64 21:43 22:65 23:2 24:66 25:67 26:68 27:69 28:70 29:71 
1 1:3 2:52 3:53 4:54 5:55 6:56 7:16 8:48 9:44 10:57 11:58 12:59 13:3 14:60 15:31 16:61 17:8 18:62 19:63 20:64 21:43 22:65 23:2 24:66 25:67 26:68 27:69 28:70 29:71 
1 1:4 2:52 3:53 4:54 5:55 6:56 7:16 8:48 9:44 10:57 11:58 12:59 13:3 14:60 15:31 16:61 17:8 18:62 19:63 20:64 21:43 22:65 23:2 24:66 25:67 26:68 27:69 28:70 29:71 
1 1:6 2:52 3:53 4:54 5:55 6:56 7:16 8:48 9:44 10:57 11:58 12:59 13:3 14:60 15:31 16:61 17:8 18:62 19:63 20:64 21:43 22:65 23:2 24:66 25:67 26:68 27:69 28:70 29:71 
1 1:11 2:52 3:53 4:54 5:55 6:56 7:16 8:48 9:44 10:57 11:58 12:59 13:3 14:60 15:31 16:61 17:8 18:62 19:63 20:64 21:43 22:65 23:2 24:66 25:67 26:68 27:69 28:70 29:71 
1 1:12 2:52 3:53 4:54 5:55 6:56 7:16 8:48 9:44 10:57 11:58 12:59 13:3 14:60 15:31 16:61 17:8 18:62 19:63 20:64 21:43 22:65 23:2 24:66 25:67 26:68 27:69 28:70 29:71 
1 1:13 2:52 3:53 4:54 5:55 6:56 7:16 8:48 9:44 10:57 11:58 12:59 13:3 14:60 15:31 16:61 17:8 18:62 19:63 20:64 21:43 22:65 23:2 24:66 25:67 26:68 27:69 28:70 29:71 
1 1:14 2:52 3:53 4:54 5:55 6:56 7:16 8:48 9:44 10:57 11:58 12:59 13:3 14:60 15:31 16:61 17:8 18:62 19:63 20:64 21:43 22:65 23:2 24:66 25:67 26:68 27:69 28:70 29:71 
0.3188186473261433 1:19 2:52 3:53 4:54 5:55 6:56 7:16 8:48 9:44 10:57 11:58 12:59 13:3 14:60 15:31 16:61 17:8 18:62 19:63 20:64 21:43 22:65 23:2 24:66 25:67 26:68 27:69 28:70 29:71 
1 1:20 2:52 3:53 4:54 5:55 6:56 7:16 8:48 9:44 10:57 11:58 12:59 13:3 14:60 15:31 16:61 17:8 18:62 19:63 20:64 21:43 22:65 23:2 24:66 25:67 26:68 27:69 28:70 29:71 
0.3110980000131535 1:22 2:52 3:53 4:54 5:55 6:56 7:16 8:48 9:44 10:57 11:58 12:59 13:3 14:60 15:31 16:61 17:8 18:62 19:63 20:64 21:43 22:65 23:2 24:66 25:67 26:68 27:69 28:70 29:71 
0.3948744009299734 1:27 2:52 3:53 4:54 5:55 6:56 7:16 8:48 9:44 10:57 11:58 12:59 13:3 14:60 15:31 16:61 17:8 18:62 19:63 20:64 21:43 22:65 23:2 24:66 25:67 26:68 27:69 28:70 29:71 
1 1:0 2:72 3:44 4:73 5:3 6:74 7:35 8:3 9:75 10:76 11:77 12:8 13:78 14:79 15:80 16:8 17:81 18:82 19:27 20:83 21:84 22:85 23:82 24:86 25:8 26:87 27:3 28:4 29:18 30:88 31:29 32:89 33:90 34:91 35:53 36:92 
1 1:3 2:72 3:44 4:73 5:3 6:74 7:35 8:3 9:75 10:76 11:77 12:8 13:78 14:79 15:80 16:8 17:81 18:82 19:27 20:83 21:84 22:85 23:82 24:86 25:8 26:87 27:3 28:4 29:18 30:88 31:29 32:89 33:90 34:91 35:53 36:92 
1 1:4 2:72 3:44 4:73 5:3 6:74 7:35 8:3 9:75 10:76 11:77 12:8 13:78 14:79 15:80 16:8 17:81 18:82 19:27 20:83 21:84 22:85 23:82 24:86 25:8 26:87 27:3 28:4 29:18 30:88 31:29 32:89 33:90 34:91 35:53 36:92 
1 1:6 2:72 3:44 4:73 5:3 6:74 7:35 8:3 9:75 10:76 11:77 12:8 13:78 14:79 15:80 16:8 17:81 18:82 19:27 20:83 21:84 22:85 23:82 24:86 25:8 26:87 27:3 28:4 29:18 30:88 31:29 32:89 33:90 34:91 35:53 36:92 
1 1:7 2:72 3:44 4:73 5:3 6:74 7:35 8:3 9:75 10:76 11:77 12:8 13:78 14:79 15:80 16:8 17:81 18:82 19:27 20:83 21:84 22:85 23:82 24:86 25:8 26:87 27:3 28:4 29:18 30:88 31:29 32:89 33:90 34:91 35:53 36:92 
1 1:12 2:72 3:44 4:73 5:3 6:74 7:35 8:3 9:75 10:76 11:77 12:8 13:78 14:79 15:80 16:8 17:81 18:82 19:27 20:83 21:84 22:85 23:82 24:86 25:8 26:87 27:3 28:4 29:18 30:88 31:29 32:89 33:90 34:91 35:53 36:92 
1 1:13 2:72 3:44 4:73 5:3 6:74 7:35 8:3 9:75 10:76 11:77 12:8 13:78 14:79 15:80 16:8 17:81 18:82 19:27 20:83 21:84 22:85 23:82 24:86 25:8 26:87 27:3 28:4 29:18 30:88 31:29 32:89 33:90 34:91 35:53 36:92 
1 1:15 2:72 3:44 4:73 5:3 6:74 7:35 8:3 9:75 10:76 11:77 12:8 13:78 14:79 15:80 16:8 17:81 18:82 19:27 20:83 21:84 22:85 23:82 24:86 25:8 26:87 27:3 28:4 29:18 30:88 31:29 32:89 33:90 34:91 35:53 36:92 
1 1:16 2:72 3:44 4:73 5:3 6:74 7:35 8:3 9:75 10:76 11:77 12:8 13:78 14:79 15:80 16:8 17:81 18:82 19:27 20:83 21:84 22:85 23:82 24:86 25:8 26:87 27:3 28:4 29:18 30:88 31:29 32:89 33:90 34:91 35:53 36:92 
0.1018172374829825 1:21 2:72 3:44 4:73 5:3 6:74 7:35 8:3 9:75 10:76 11:77 12:8 13:78 14:79 15:80 16:8 17:81 18:82 19:27 20:83 21:84 22:85 23:82 24:86 25:8 26:87 27:3 28:4 29:18 30:88 31:29 32:89 33:90 34:91 35:53 36:92 
1 1:22 2:72 3:44 4:73 5:3 6:74 7:35 8:3 9:75 10:76 11:77 12:8 13:78 14:79 15:80 16:8 17:81 18:82 19:27 20:83 21:84 22:85 23:82 24:86 25:8 26:87 27:3 28:4 29:18 30:88 31:29 32:89 33:90 34:91 35:53 36:92 
1 1:25 2:72 3:44 4:73 5:3 6:74 7:35 8:3 9:75 10:76 11:77 12:8 13:78 14:79 15:80 16:8 17:81 18:82 19:27 20:83 21:84 22:85 23:82 24:86 25:8 26:87 27:3 28:4 29:18 30:88 31:29 32:89 33:90 34:91 35:53 36:92 
1 1:26 2:72 3:44 4:73 5:3 6:74 7:35 8:3 9:75 10:76 11:77 12:8 13:78 14:79 15:80 16:8 17:81 18:82 19:27 20:83 21:84 22:85 23:82 24:86 25:8 26:87 27:3 28:4 29:18 30:88 31:29 32:89 33:90 34:91 35:53 36:92 
0.8586722065742109 1:28 2:72 3:44 4:73 5:3 6:74 7:35 8:3 9:75 10:76 11:77 12:8 13:78 14:79 15:80 16:8 17:81 18:82 19:27 20:83 21:84 22:85 23:82 24:86 25:8 26:87 27:3 28:4 29:18 30:88 31:29 32:89 33:90 34:91 35:53 36:92 
0.7152187338509333 1:32 2:72 3:44 4:73 5:3 6:74 7:35 8:3 9:75 10:76 11:77 12:8 13:78 14:79 15:80 16:8 17:81 18:82 19:27 20:83 21:84 22:85 23:82 24:86 25:8 26:87 27:3 28:4 29:18 30:88 31:29 32:89 33:90 34:91 35:53 36:92 
1 1:33 2:72 3:44 4:73 5:3 6:74 7:35 8:3 9:75 10:76 11:77 12:8 13:78 14:79 15:80 16:8 17:81 18:82 19:27 20:83 21:84 22:85 23:82 24:86 25:8 26:87 27:3 28:4 29:18 30:88 31:29 32:89 33:90 34:91 35:53 36:92 
1 1:1 2:93 3:94 4:95 5:16 6:48 7:35 8:24 9:96 10:14 11:97 12:98 13:99 14:100 15:101 16:3 17:102 18:103 19:18 20:104 21:105 22:106 23:107 24:18 25:108 26:109 27:110 28:111 29:112 30:113 31:114 
1 1:2 2:93 3:94 4:95 5:16 6:48 7:35 8:24 9:96 10:14 11:97 12:98 13:99 14:100 15:101 16:3 17:102 18:103 19:18 20:104 21:105 22:106 23:107 24:18 25:108 26:109 27:110 28:111 29:112 30:113 31:114 
0.4467018776637837 1:6 2:93 3:94 4:95 5:16 6:48 7:35 8:24 9:96 10:14 11:97 12:98 13:99 14:100 15:101 16:3 17:102 18:103 19:18 20:104 21:105 22:106 23:107 24:18 25:108 26:109 27:110 28:111 29:112 30:113 31:114 
1 1:7 2:93 3:94 4:95 5:16 6:48 7:35 8:24 9:96 10:14 11:97 12:98 13:99 14:100 15:101 16:3 17:102 18:103 19:18 20:104 21:105 22:106 23:107 24:18 25:108 26:109 27:110 28:111 29:112 30:113 31:114 
1 1:8 2:93 3:94 4:95 5:16 6:48 7:35 8:24 9:96 10:14 11:97 12:98 13:99 14:100 15:101 16:3 17:102 18:103 19:18 20:104 21:105 22:106 23:107 24:18 25:108 26:109 27:110 28:111 29:112 30:113 31:114 
1 1:9 2:93 3:94 4:95 5:16 6:48 7:35 8:24 9:96 10:14 11:97 12:98 13:99 14:100 15:101 16:3 17:102 18:103 19:18 20:104 21:105 22:106 23:107 24:18 25:108 26:109 27:110 28:111 29:112 30:113 31:114 
1 1:14 2:93 3:94 4:95 5:16 6:48 7:35 8:24 9:96 10:14 11:97 12:98 13:99 14:100 15:101 16:3 17:102 18:103 19:18 20:104 21:105 22:106 23:107 24:18 25:108 26:109 27:110 28:111 29:112 30:113 31:114 
1 1:15 2:93 3:94 4:95 5:16 6:48 7:35 8:24 9:96 10:14 11:97 12:98 13:99 14:100 15:101 16:3 17:102 18:103 19:18 20:104 21:105 22:106 23:107 24:18 25:108 26:109 27:110 28:111 29:112 30:113 31:114 
1 1:16 2:93 3:94 4:95 5:16 6:48 7:35 8:24 9:96 10:14 11:97 12:98 13:99 14:100 15:101 16:3 17:102 18:103 19:18 20:104 21:105 22:106 23:107 24:18 25:108 26:109 27:110 28:111 29:112 30:113 31:114 
1 1:20 2:93 3:94 4:95 5:16 6:48 7:35 8:24 9:96 10:14 11:97 12:98 13:99 14:100 15:101 16:3 17:102 18:103 19:18 20:104 21:105 22:106 23:107 24:18 25:108 26:109 27:110 28:111 29:112 30:113 31:114 
1 1:21 2:93 3:94 4:95 5:16 6:48 7:35 8:24 9:96 10:14 11:97 12:98 13:99 14:100 15:101 16:3 17:102 18:103 19:18 20:104 21:105 22:106 23:107 24:18 25:108 26:109 27:110 28:111 29:112 30:113 31:114 
1 1:23 2:93 3:94 4:95 5:16 6:48 7:35 8:24 9:96 10:14 11:97 12:98 13:99 14:100 15:101 16:3 17:102 18:103 19:18 20:104 21:105 22:106 23:107 24:18 25:108 26:109 27:110 28:111 29:112 30:113 31:114 
0.3844045214654034 1:24 2:93 3:94 4:95 5:16 6:48 7:35 8:24 9:96 10:14 11:97 12:98 13:99 14:100 15:101 16:3 17:102 18:103 19:18 20:104 21:105 22:106 23:107 24:18 25:108 26:109 27:110 28:111 29:112 30:113 31:114 
0.7219577189523605 1:29 2:93 3:94 4:95 5:16 6:48 7:35 8:24 9:96 10:14 11:97 12:98 13:99 14:100 15:101 16:3 17:102 18:103 19:18 20:104 21:105 22:106 23:107 24:18 25:108 26:109 27:110 28:111 29:112 30:113 31:114 
1 1:2 2:93 3:115 4:116 5:5 6:10 7:96 8:14 9:117 10:18 11:116 12:118 13:119 14:120 15:121 16:122 17:35 18:123 19:18 20:104 21:124 22:125 23:126 24:18 25:109 26:110 27:16 28:127 29:128 30:18 31:24 32:129 33:35 34:127 35:130 36:131 
1 1:4 2:93 3:115 4:116 5:5 6:10 7:96 8:14 9:117 10:18 11:116 12:118 13:119 14:120 15:121 16:122 17:35 18:123 19:18 20:104 21:124 22:125 23:126 24:18 25:109 26:110 27:16 28:127 29:128 30:18 31:24 32:129 33:35 34:127 35:130 36:131 
1 1:5 2:93 3:115 4:116 5:5 6:10 7:96 8:14 9:117 10:18 11:116 12:118 13:119 14:120 15:121 16:122 17:35 18:123 19:18 20:104 21:124 22:125 23:126 24:18 25:109 26:110 27:16 28:127 29:128 30:18 31:24 32:129 33:35 34:127 35:130 36:131 
0.7980293262971068 1:6 2:93 3:115 4:116 5:5 6:10 7:96 8:14 9:117 10:18 11:116 12:118 13:119 14:120 15:121 16:122 17:35 18:123 19:18 20:104 21:124 22:125 23:126 24:18 25:109 26:110 27:16 28:127 29:128 30:18 31:24 32:129 33:35 34:127 35:130 36:131 
0.3722421839418501 1:9 2:93 3:115 4:116 5:5 6:10 7:96 8:14 9:117 10:18 11:116 12:118 13:119 14:120 15:121 16:122 17:35 18:123 19:18 20:104 21:124 22:125 23:126 24:18 25:109 26:110 27:16 28:127 29:128 30:18 31:24 32:129 33:35 34:127 35:130 36:131 
1 1:12 2:93 3:115 4:116 5:5 6:10 7:96 8:14 9:117 10:18 11:116 12:118 13:119 14:120 15:121 16:122 17:35 18:123 19:18 20:104 21:124 22:125 23:126 24:18 25:109 26:110 27:16 28:127 29:128 30:18 31:24 32:129 33:35 34:127 35:130 36:131 
1 1:13 2:93 3:115 4:116 5:5 6:10 7:96 8:14 9:117 10:18 11:116 12:118 13:119 14:120 15:121 16:122 17:35 18:123 19:18 20:104 21:124 22:125 23:126 24:18 25:109 26:110 27:16 28:127 29:128 30:18 31:24 32:129 33:35 34:127 35:130 36:131 
1 1:14 2:93 3:115 4:116 5:5 6:10 7:96 8:14 9:117 10:18 11:116 12:118 13:119 14:120 15:121 16:122 17:35 18:123 19:18 20:104 21:124 22:125 23:126 24:18 25:109 26:110 27:16 28:127 29:128 30:18 31:24 32:129 33:35 34:127 35:130 36:131 
1 1:16 2:93 3:115 4:116 5:5 6:10 7:96 8:14 9:117 10:18 11:116 12:118 13:119 14:120 15:121 16:122 17:35 18:123 19:18 20:104 21:124 22:125 23:126 24:18 25:109 26:110 27:16 28:127 29:128 30:18 31:24 32:129 33:35 34:127 35:130 36:131 
1 1:20 2:93 3:115 4:116 5:5 6:10 7:96 8:14 9:117 10:18 11:116 12:118 13:119 14:120 15:121 16:122 17:35 18:123 19:18 20:104 21:124 22:125 23:126 24:18 25:109 26:110 27:16 28:127 29:128 30:18 31:24 32:129 33:35 34:127 35:130 36:131 
1 1:21 2:93 3:115 4:116 5:5 6:10 7:96 8:14 9:117 10:18 11:116 12:118 13:119 14:120 15:121 16:122 17:35 18:123 19:18 20:104 21:124 22:125 23:126 24:18 25:109 26:110 27:16 28:127 29:128 30:18 31:24 32:129 33:35 34:127 35:130 36:131 
1 1:23 2:93 3:115 4:116 5:5 6:10 7:96 8:14 9:117 10:18 11:116 12:118 13:119 14:120 15:121 16:122 17:35 18:123 19:18 20:104 21:124 22:125 23:126 24:18 25:109 26:110 27:16 28:127 29:128 30:18 31:24 32:129 33:35 34:127 35:130 36:131 
1 1:24 2:93 3:115 4:116 5:5 6:10 7:96 8:14 9:117 10:18 11:116 12:118 13:119 14:120 15:121 16:122 17:35 18:123 19:18 20:104 21:124 22:125 23:126 24:18 25:109 26:110 27:16 28:127 29:128 30:18 31:24 32:129 33:35 34:127 35:130 36:131 
0.913928409742615 1:29 2:93 3:115 4:116 5:5 6:10 7:96 8:14 9:117 10:18 11:116 12:118 13:119 14:120 15:121 16:122 17:35 18:123 19:18 20:104 21:124 22:125 23:126 24:18 25:109 26:110 27:16 28:127 29:128 30:18 31:24 32:129 33:35 34:127 35:130 36:131 
0.921675482173555 1:30 2:93 3:115 4:116 5:5 6:10 7:96 8:14 9:117 10:18 11:116 12:118 13:119 14:120 15:121 16:122 17:35 18:123 19:18 20:104 21:124 22:125 23:126 24:18 25:109 26:110 27:16 28:127 29:128 30:18 31:24 32:129 33:35 34:127 35:130 36:131 
0.5742471415154256 1:34 2:93 3:115 4:116 5:5 6:10 7:96 8:14 9:117 10:18 11:116 12:118 13:119 14:120 15:121 16:122 17:35 18:123 19:18 20:104 21:124 22:125 23:126 24:18 25:109 26:110 27:16 28:127 29:128 30:18 31:24 32:129 33:35 34:127 35:130 36:131 
0.4140627880200398 1:0 2:132 3:16 4:3 5:14 6:15 7:133 8:6 9:18 10:134 11:135 12:88 13:136 14:3 15:137 16:8 17:23 18:24 19:99 20:138 21:26 22:27 23:3 24:139 25:140 26:141 27:142 28:143 29:144 30:141 31:145 32:146 33:2 34:3 35:84 36:147 37:148 38:16 39:30 
1 1:2 2:132 3:16 4:3 5:14 6:15 7:133 8:6 9:18 10:134 11:135 12:88 13:136 14:3 15:137 16:8 17:23 18:24 19:99 20:138 21:26 22:27 23:3 24:139 25:140 26:141 27:142 28:143 29:144 30:141 31:145 32:146 33:2 34:3 35:84 36:147 37:148 38:16 39:30 
1 1:3 2:132 3:16 4:3 5:14 6:15 7:133 8:6 9:18 10:134 11:135 12:88 13:136 14:3 15:137 16:8 17:23 18:24 19:99 20:138 21:26 22:27 23:3 24:139 25:140 26:141 27:142 28:143 29:144 30:141 31:145 32:146 33:2 34:3 35:84 36:147 37:148 38:16 39:30 
1 1:4 2:132 3:16 4:3 5:14 6:15 7:133 8:6 9:18 10:134 11:135 12:88 13:136 14:3 15:137 16:8 17:23 18:24 19:99 20:138 21:26 22:27 23:3 24:139 25:140 26:141 27:142 28:143 29:144 30:141 31:145 32:146 33:2 34:3 35:84 36:147 37:148 38:16 39:30 
1 1:9 2:132 3:16 4:3 5:14 6:15 7:133 8:6 9:18 10:134 11:135 12:88 13:136 14:3 15:137 16:8 17:23 18:24 19:99 20:138 21:26 22:27 23:3 24:139 25:140 26:141 27:142 28:143 29:144 30:141 31:145 32:146 33:2 34:3 35:84 36:147 37:148 38:16 39:30 
1 1:10 2:132 3:16 4:3 5:14 6:15 7:133 8:6 9:18 10:134 11:135 12:88 13:136 14:3 15:137 16:8 17:23 18:24 19:99 20:138 21:26 22:27 23:3 24:139 25:140 26:141 27:142 28:143 29:144 30:141 31:145 32:146 33:2 34:3 35:84 36:147 37:148 38:16 39:30 
1 1:12 2:132 3:16 4:3 5:14 6:15 7:133 8:6 9:18 10:134 11:135 12:88 13:136 14:3 15:137 16:8 17:23 18:24 19:99 20:138 21:26 22:27 23:3 24:139 25:140 26:141 27:142 28:143 29:144 30:141 31:145 32:146 33:2 34:3 35:84 36:147 37:148 38:16 39:30 
1 1:13 2:132 3:16 4:3 5:14 6:15 7:133 8:6 9:18 10:134 11:135 12:88 13:136 14:3 15:137 16:8 17:23 18:24 19:99 20:138 21:26 22:27 23:3 24:139 25:140 26:141 27:142 28:143 29:144 30:141 31:145 32:146 33:2 34:3 35:84 36:147 37:148 38:16 39:30 
1 1:16 2:132 3:16 4:3 5:14 6:15 7:133 8:6 9:18 10:134 11:135 12:88 13:136 14:3 15:137 16:8 17:23 18:24 19:99 20:138 21:26 22:27 23:3 24:139 25:140 26:141 27:142 28:143 29:144 30:141 31:145 32:146 33:2 34:3 35:84 36:147 37:148 38:16 39:30 
0.2539280089695111 1:17 2:132 3:16 4:3 5:14 6:15 7:133 8:6 9:18 10:134 11:135 12:88 13:136 14:3 15:137 16:8 17:23 18:24 19:99 20:138 21:26 22:27 23:3 24:139 25:140 26:141 27:142 28:143 29:144 30:141 31:145 32:146 33:2 34:3 35:84 36:147 37:148 38:16 39:30 
1 1:21 2:132 3:16 4:3 5:14 6:15 7:133 8:6 9:18 10:134 11:135 12:88 13:136 14:3 15:137 16:8 17:23 18:24 19:99 20:138 21:26 22:27 23:3 24:139 25:140 26:141 27:142 28:143 29:144 30:141 31:145 32:146 33:2 34:3 35:84 36:147 37:148 38:16 39:30 
0.01324860289589624 1:22 2:132 3:16 4:3 5:14 6:15 7:133 8:6 9:18 10:134 11:135 12:88 13:136 14:3 15:137 16:8 17:23 18:24 19:99 20:138 21:26 22:27 23:3 24:139 25:140 26:141 27:142 28:143 29:144 30:141 31:145 32:146 33:2 34:3 35:84 36:147 37:148 38:16 39:30 
0.02416630513526426 1:27 2:132 3:16 4:3 5:14 6:15 7:133 8:6 9:18 10:134 11:135 12:88 13:136 14:3 15:137 16:8 17:23 18:24 19:99 20:138 21:26 22:27 23:3 24:139 25:140 26:141 27:142 28:143 29:144 30:141 31:145 32:146 33:2 34:3 35:84 36:147 37:148 38:16 39:30 
0.3745339761518329 1:28 2:132 3:16 4:3 5:14 6:15 7:133 8:6 9:18 10:134 11:135 12:88 13:136 14:3 15:137 16:8 17:23 18:24 19:99 20:138 21:26 22:27 23:3 24:139 25:140 26:141 27:142 28:143 29:144 30:141 31:145 32:146 33:2 34:3 35:84 36:147 37:148 38:16 39:30 
0.1874153230353195 1:32 2:132 3:16 4:3 5:14 6:15 7:133 8:6 9:18 10:134 11:135 12:88 13:136 14:3 15:137 16:8 17:23 18:24 19:99 20:138 21:26 22:27 23:3 24:139 25:140 26:141 27:142 28:143 29:144 30:141 31:145 32:146 33:2 34:3 35:84 36:147 37:148 38:16 39:30 
1 1:33 2:132 3:16 4:3 5:14 6:15 7:133 8:6 9:18 10:134 11:135 12:88 13:136 14:3 15:137 16:8 17:23 18:24 19:99 20:138 21:26 22:27 23:3 24:139 25:140 26:141 27:142 28:143 29:144 30:141 31:145 32:146 33:2 34:3 35:84 36:147 37:148 38:16 39:30 
1 1:34 2:132 3:16 4:3 5:14 6:15 7:133 8:6 9:18 10:134 11:135 12:88 13:136 14:3 15:137 16:8 17:23 18:24 19:99 20:138 21:26 22:27 23:3 24:139 25:140 26:141 27:142 28:143 29:144 30:141 31:145 32:146 33:2 34:3 35:84 36:147 37:148 38:16 39:30 
1 1:37 2:132 3:16 4:3 5:14 6:15 7:133 8:6 9:18 10:134 11:135 12:88 13:136 14:3 15:137 16:8 17:23 18:24 19:99 20:138 21:26 22:27 23:3 24:139 25:140 26:141 27:142 28:143 29:144 30:141 31:145 32:146 33:2 34:3 35:84 36:147 37:148 38:16 39:30 
0.5312440132824774 1:0 2:94 3:30 4:146 5:29 6:3 7:139 8:149 9:141 10:150 11:151 12:2 13:28 14:98 15:152 16:153 17:59 18:3 19:139 20:154 21:141 22:146 23:35 24:155 25:156 
1 1:6 2:94 3:30 4:146 5:29 6:3 7:139 8:149 9:141 10:150 11:151 12:2 13:28 14:98 15:152 16:153 17:59 18:3 19:139 20:154 21:141 22:146 23:35 24:155 25:156 
1 1:7 2:94 3:30 4:146 5:29 6:3 7:139 8:149 9:141 10:150 11:151 12:2 13:28 14:98 15:152 16:153 17:59 18:3 19:139 20:154 21:141 22:146 23:35 24:155 25:156 
1 1:8 2:94 3:30 4:146 5:29 6:3 7:139 8:149 9:141 10:150 11:151 12:2 13:28 14:98 15:152 16:153 17:59 18:3 19:139 20:154 21:141 22:146 23:35 24:155 25:156 
1 1:11 2:94 3:30 4:146 5:29 6:3 7:139 8:149 9:141 10:150 11:151 12:2 13:28 14:98 15:152 16:153 17:59 18:3 19:139 20:154 21:141 22:146 23:35 24:155 25:156 
1 1:16 2:94 3:30 4:146 5:29 6:3 7:139 8:149 9:141 10:150 11:151 12:2 13:28 14:98 15:152 16:153 17:59 18:3 19:139 20:154 21:141 22:146 23:35 24:155 25:156 
1 1:17 2:94 3:30 4:146 5:29 6:3 7:139 8:149 9:141 10:150 11:151 12:2 13:28 14:98 15:152 16:153 17:59 18:3 19:139 20:154 21:141 22:146 23:35 24:155 25:156 
1 1:18 2:94 3:30 4:146 5:29 6:3 7:139 8:149 9:141 10:150 11:151 12:2 13:28 14:98 15:152 16:153 17:59 18:3 19:139 20:154 21:141 22:146 23:35 24:155 25:156 
0.6271992019925479 1:19 2:94 3:30 4:146 5:29 6:3 7:139 8:149 9:141 10:150 11:151 12:2 13:28 14:98 15:152 16:153 17:59 18:3 19:139 20:154 21:141 22:146 23:35 24:155 25:156 
0.1585611117133742 1:23 2:94 3:30 4:146 5:29 6:3 7:139 8:149 9:141 10:150 11:151 12:2 13:28 14:98 15:152 16:153 17:59 18:3 19:139 20:154 21:141 22:146 23:35 24:155 25:156 
0.9590835785965978 1:0 2:157 3:158 4:18 5:159 6:110 7:111 8:160 9:161 10:162 11:163 12:18 13:105 14:116 15:5 16:164 17:165 18:166 19:167 20:31 21:168 22:169 23:5 24:170 25:171 26:8 27:172 28:173 
0.7428817762886917 1:3 2:157 3:158 4:18 5:159 6:110 7:111 8:160 9:161 10:162 11:163 12:18 13:105 14:116 15:5 16:164 17:165 18:166 19:167 20:31 21:168 22:169 23:5 24:170 25:171 26:8 27:172 28:173 
0.3831167588026198 1:7 2:157 3:158 4:18 5:159 6:110 7:111 8:160 9:161 10:162 11:163 12:18 13:105 14:116 15:5 16:164 17:165 18:166 19:167 20:31 21:168 22:169 23:5 24:170 25:171 26:8 27:172 28:173 
1 1:8 2:157 3:158 4:18 5:159 6:110 7:111 8:160 9:161 10:162 11:163 12:18 13:105 14:116 15:5 16:164 17:165 18:166 19:167 20:31 21:168 22:169 23:5 24:170 25:171 26:8 27:172 28:173 
1 1:9 2:157 3:158 4:18 5:159 6:110 7:111 8:160 9:161 10:162 11:163 12:18 13:105 14:116 15:5 16:164 17:165 18:166 19:167 20:31 21:168 22:169 23:5 24:170 25:171 26:8 27:172 28:173 
1 1:12 2:157 3:158 4:18 5:159 6:110 7:111 8:160 9:161 10:162 11:163 12:18 13:105 14:116 15:5 16:164 17:165 18:166 19:167 20:31 21:168 22:169 23:5 24:170 25:171 26:8 27:172 28:173 
0.8753578448310674 1:14 2:157 3:158 4:18 5:159 6:110 7:111 8:160 9:161 10:162 11:163 12:18 13:105 14:116 15:5 16:164 17:165 18:166 19:167 20:31 21:168 22:169 23:5 24:170 25:171 26:8 27:172 28:173 
0.8402720253455328 1:18 2:157 3:158 4:18 5:159 6:110 7:111 8:160 9:161 10:162 11:163 12:18 13:105 14:116 15:5 16:164 17:165 18:166 19:167 20:31 21:168 22:169 23:5 24:170 25:171 26:8 27:172 28:173 
1 1:19 2:157 3:158 4:18 5:159 6:110 7:111 8:160 9:161 10:162 11:163 12:18 13:105 14:116 15:5 16:164 17:165 18:166 19:167 20:31 21:168 22:169 23:5 24:170 25:171 26:8 27:172 28:173 
1 1:20 2:157 3:158 4:18 5:159 6:110 7:111 8:160 9:161 10:162 11:163 12:18 13:105 14:116 15:5 16:164 17:165 18:166 19:167 20:31 21:168 22:169 23:5 24:170 25:171 26:8 27:172 28:173 
1 1:23 2:157 3:158 4:18 5:159 6:110 7:111 8:160 9:161 10:162 11:163 12:18 13:105 14:116 15:5 16:164 17:165 18:166 19:167 20:31 21:168 22:169 23:5 24:170 25:171 26:8 27:172 28:173 
1 1:26 2:157 3:158 4:18 5:159 6:110 7:111 8:160 9:161 10:162 11:163 12:18 13:105 14:116 15:5 16:164 17:165 18:166 19:167 20:31 21:168 22:169 23:5 24:170 25:171 26:8 27:172 28:173 
1 1:1 2:174 3:3 4:175 5:176 6:18 7:177 8:178 9:179 10:180 11:181 12:3 13:182 14:16 15:183 16:18 17:184 18:185 19:186 20:187 21:29 22:188 23:189 24:190 
1 1:2 2:174 3:3 4:175 5:176 6:18 7:177 8:178 9:179 10:180 11:181 12:3 13:182 14:16 15:183 16:18 17:184 18:185 19:186 20:187 21:29 22:188 23:189 24:190 
1 1:3 2:174 3:3 4:175 5:176 6:18 7:177 8:178 9:179 10:180 11:181 12:3 13:182 14:16 15:183 16:18 17:184 18:185 19:186 20:187 21:29 22:188 23:189 24:190 
1 1:5 2:174 3:3 4:175 5:176 6:18 7:177 8:178 9:179 10:180 11:181 12:3 13:182 14:16 15:183 16:18 17:184 18:185 19:186 20:187 21:29 22:188 23:189 24:190 
1 1:10 2:174 3:3 4:175 5:176 6:18 7:177 8:178 9:179 10:180 11:181 12:3 13:182 14:16 15:183 16:18 17:184 18:185 19:186 20:187 21:29 22:188 23:189 24:190 
1 1:11 2:174 3:3 4:175 5:176 6:18 7:177 8:178 9:179 10:180 11:181 12:3 13:182 14:16 15:183 16:18 17:184 18:185 19:186 20:187 21:29 22:188 23:189 24:190 
1 1:13 2:174 3:3 4:175 5:176 6:18 7:177 8:178 9:179 10:180 11:181 12:3 13:182 14:16 15:183 16:18 17:184 18:185 19:186 20:187 21:29 22:188 23:189 24:190 
1 1:16 2:174 3:3 4:175 5:176 6:18 7:177 8:178 9:179 10:180 11:181 12:3 13:182 14:16 15:183 16:18 17:184 18:185 19:186 20:187 21:29 22:188 23:189 24:190 
0.9222973673949391 1:17 2:174 3:3 4:175 5:176 6:18 7:177 8:178 9:179 10:180 11:181 12:3 13:182 14:16 15:183 16:18 17:184 18:185 19:186 20:187 21:29 22:188 23:189 24:190 
0.8219488955813504 1:0 2:191 3:192 4:3 5:84 6:147 7:146 8:193 9:194 10:8 11:153 12:139 13:195 14:141 15:2 16:17 
0.142357243148907 1:3 2:191 3:192 4:3 5:84 6:147 7:146 8:193 9:194 10:8 11:153 12:139 13:195 14:141 15:2 16:17 
1 1:4 2:191 3:192 4:3 5:84 6:147 7:146 8:193 9:194 10:8 11:153 12:139 13:195 14:141 15:2 16:17 
1 1:5 2:191 3:192 4:3 5:84 6:147 7:146 8:193 9:194 10:8 11:153 12:139 13:195 14:141 15:2 16:17 
1 1:9 2:191 3:192 4:3 5:84 6:147 7:146 8:193 9:194 10:8 11:153 12:139 13:195 14:141 15:2 16:17 
1 1:10 2:191 3:192 4:3 5:84 6:147 7:146 8:193 9:194 10:8 11:153 12:139 13:195 14:141 15:2 16:17 
0.1457011888068571 1:11 2:191 3:192 4:3 5:84 6:147 7:146 8:193 9:194 10:8 11:153 12:139 13:195 14:141 15:2 16:17 
0.8188934151388414 1:14 2:191 3:192 4:3 5:84 6:147 7:146 8:193 9:194 10:8 11:153 12:139 13:195 14:141 15:2 16:17 
1 1:2 2:196 3:18 4:197 5:107 6:105 7:177 8:198 9:166 10:24 11:199 12:2 13:200 14:201 15:202 16:59 17:169 18:118 19:203 20:8 21:24 22:11 23:204 24:2 25:183 
1 1:3 2:196 3:18 4:197 5:107 6:105 7:177 8:198 9:166 10:24 11:199 12:2 13:200 14:201 15:202 16:59 17:169 18:118 19:203 20:8 21:24 22:11 23:204 24:2 25:183 
1 1:5 2:196 3:18 4:197 5:107 6:105 7:177 8:198 9:166 10:24 11:199 12:2 13:200 14:201 15:202 16:59 17:169 18:118 19:203 20:8 21:24 22:11 23:204 24:2 25:183 
1 1:8 2:196 3:18 4:197 5:107 6:105 7:177 8:198 9:166 10:24 11:199 12:2 13:200 14:201 15:202 16:59 17:169 18:118 19:203 20:8 21:24 22:11 23:204 24:2 25:183 
1 1:9 2:196 3:18 4:197 5:107 6:105 7:177 8:198 9:166 10:24 11:199 12:2 13:200 14:201 15:202 16:59 17:169 18:118 19:203 20:8 21:24 22:11 23:204 24:2 25:183 
0.8473062162220918 1:12 2:196 3:18 4:197 5:107 6:105 7:177 8:198 9:166 10:24 11:199 12:2 13:200 14:201 15:202 16:59 17:169 18:118 19:203 20:8 21:24 22:11 23:204 24:2 25:183 
1 1:13 2:196 3:18 4:197 5:107 6:105 7:177 8:198 9:166 10:24 11:199 12:2 13:200 14:201 15:202 16:59 17:169 18:118 19:203 20:8 21:24 22:11 23:204 24:2 25:183 
1 1:15 2:196 3:18 4:197 5:107 6:105 7:177 8:198 9:166 10:24 11:199 12:2 13:200 14:201 15:202 16:59 17:169 18:118 19:203 20:8 21:24 22:11 23:204 24:2 25:183 
1 1:19 2:196 3:18 4:197 5:107 6:105 7:177 8:198 9:166 10:24 11:199 12:2 13:200 14:201 15:202 16:59 17:169 18:118 19:203 20:8 21:24 22:11 23:204 24:2 25:183 
1 1:20 2:196 3:18 4:197 5:107 6:105 7:177 8:198 9:166 10:24 11:199 12:2 13:200 14:201 15:202 16:59 17:169 18:118 19:203 20:8 21:24 22:11 23:204 24:2 25:183 
1 1:21 2:196 3:18 4:197 5:107 6:105 7:177 8:198 9:166 10:24 11:199 12:2 13:200 14:201 15:202 16:59 17:169 18:118 19:203 20:8 21:24 22:11 23:204 24:2 25:183 
0.1658686731255692 1:23 2:196 3:18 4:197 5:107 6:105 7:177 8:198 9:166 10:24 11:199 12:2 13:200 14:201 15:202 16:59 17:169 18:118 19:203 20:8 21:24 22:11 23:204 24:2 25:183 
1 1:2 2:205 3:206 4:111 5:207 6:208 7:209 8:2 9:173 10:210 11:30 12:31 13:211 14:212 15:18 16:3 17:146 18:118 19:194 20:8 21:213 22:214 23:213 24:139 25:215 26:141 
1 1:3 2:205 3:206 4:111 5:207 6:208 7:209 8:2 9:173 10:210 11:30 12:31 13:211 14:212 15:18 16:3 17:146 18:118 19:194 20:8 21:213 22:214 23:213 24:139 25:215 26:141 
1 1:4 2:205 3:206 4:111 5:207 6:208 7:209 8:2 9:173 10:210 11:30 12:31 13:211 14:212 15:18 16:3 17:146 18:118 19:194 20:8 21:213 22:214 23:213 24:139 25:215 26:141 
0.3275891013065571 1:5 2:205 3:206 4:111 5:207 6:208 7:209 8:2 9:173 10:210 11:30 12:31 13:211 14:212 15:18 16:3 17:146 18:118 19:194 20:8 21:213 22:214 23:213 24:139 25:215 26:141 
0.1004518644081854 1:9 2:205 3:206 4:111 5:207 6:208 7:209 8:2 9:173 10:210 11:30 12:31 13:211 14:212 15:18 16:3 17:146 18:118 19:194 20:8 21:213 22:214 23:213 24:139 25:215 26:141 
0.4282726889290871 1:11 2:205 3:206 4:111 5:207 6:208 7:209 8:2 9:173 10:210 11:30 12:31 13:211 14:212 15:18 16:3 17:146 18:118 19:194 20:8 21:213 22:214 23:213 24:139 25:215 26:141 
1 1:12 2:205 3:206 4:111 5:207 6:208 7:209 8:2 9:173 10:210 11:30 12:31 13:211 14:212 15:18 16:3 17:146 18:118 19:194 20:8 21:213 22:214 23:213 24:139 25:215 26:141 
1 1:14 2:205 3:206 4:111 5:207 6:208 7:209 8:2 9:173 10:210 11:30 12:31 13:211 14:212 15:18 16:3 17:146 18:118 19:194 20:8 21:213 22:214 23:213 24:139 25:215 26:141 
1 1:15 2:205 3:206 4:111 5:207 6:208 7:209 8:2 9:173 10:210 11:30 12:31 13:211 14:212 15:18 16:3 17:146 18:118 19:194 20:8 21:213 22:214 23:213 24:139 25:215 26:141 
1 1:19 2:205 3:206 4:111 5:207 6:208 7:209 8:2 9:173 10:210 11:30 12:31 13:211 14:212 15:18 16:3 17:146 18:118 19:194 20:8 21:213 22:214 23:213 24:139 25:215 26:141 
0.9451041202128865 1:20 2:205 3:206 4:111 5:207 6:208 7:209 8:2 9:173 10:210 11:30 12:31 13:211 14:212 15:18 16:3 17:146 18:118 19:194 20:8 21:213 22:214 23:213 24:139 25:215 26:141 
0.01929148913367168 1:24 2:205 3:206 4:111 5:207 6:208 7:209 8:2 9:173 10:210 11:30 12:31 13:211 14:212 15:18 16:3 17:146 18:118 19:194 20:8 21:213 22:214 23:213 24:139 25:215 26:141 
0.5773835838208474 1:0 2:197 3:126 4:18 5:216 6:217 7:218 8:24 9:139 10:215 11:141 12:84 13:147 14:150 15:18 16:219 17:166 18:220 19:13 20:3 21:14 22:15 23:98 24:221 25:16 26:48 27:18 28:3 29:222 30:223 31:224 32:225 33:226 34:227 35:228 36:193 37:229 38:8 39:230 40:231 41:232 42:35 43:3 44:233 45:234 46:235 47:236 
1 1:1 2:197 3:126 4:18 5:216 6:217 7:218 8:24 9:139 10:215 11:141 12:84 13:147 14:150 15:18 16:219 17:166 18:220 19:13 20:3 21:14 22:15 23:98 24:221 25:16 26:48 27:18 28:3 29:222 30:223 31:224 32:225 33:226 34:227 35:228 36:193 37:229 38:8 39:230 40:231 41:232 42:35 43:3 44:233 45:234 46:235 47:236 
1 1:3 2:197 3:126 4:18 5:216 6:217 7:218 8:24 9:139 10:215 11:141 12:84 13:147 14:150 15:18 16:219 17:166 18:220 19:13 20:3 21:14 22:15 23:98 24:221 25:16 26:48 27:18 28:3 29:222 30:223 31:224 32:225 33:226 34:227 35:228 36:193 37:229 38:8 39:230 40:231 41:232 42:35 43:3 44:233 45:234 46:235 47:236 
0.6816982389589478 1:9 2:197 3:126 4:18 5:216 6:217 7:218 8:24 9:139 10:215 11:141 12:84 13:147 14:150 15:18 16:219 17:166 18:220 19:13 20:3 21:14 22:15 23:98 24:221 25:16 26:48 27:18 28:3 29:222 30:223 31:224 32:225 33:226 34:227 35:228 36:193 37:229 38:8 39:230 40:231 41:232 42:35 43:3 44:233 45:234 46:235 47:236 
1 1:10 2:197 3:126 4:18 5:216 6:217 7:218 8:24 9:139 10:215 11:141 12:84 13:147 14:150 15:18 16:219 17:166 18:220 19:13 20:3 21:14 22:15 23:98 24:221 25:16 26:48 27:18 28:3 29:222 30:223 31:224 32:225 33:226 34:227 35:228 36:193 37:229 38:8 39:230 40:231 41:232 42:35 43:3 44:233 45:234 46:235 47:236 
1 1:11 2:197 3:126 4:18 5:216 6:217 7:218 8:24 9:139 10:215 11:141 12:84 13:147 14:150 15:18 16:219 17:166 18:220 19:13 20:3 21:14 22:15 23:98 24:221 25:16 26:48 27:18 28:3 29:222 30:223 31:224 32:225 33:226 34:227 35:228 36:193 37:229 38:8 39:230 40:231 41:232 42:35 43:3 44:233 45:234 46:235 47:236 
1 1:12 2:197 3:126 4:18 5:216 6:217 7:218 8:24 9:139 10:215 11:141 12:84 13:147 14:150 15:18 16:219 17:166 18:220 19:13 20:3 21:14 22:15 23:98 24:221 25:16 26:48 27:18 28:3 29:222 30:223 31:224 32:225 33:226 34:227 35:228 36:193 37:229 38:8 39:230 40:231 41:232 42:35 43:3 44:233 45:234 46:235 47:236 
1 1:18 2:197 3:126 4:18 5:216 6:217 7:218 8:24 9:139 10:215 11:141 12:84 13:147 14:150 15:18 16:219 17:166 18:220 19:13 20:3 21:14 22:15 23:98 24:221 25:16 26:48 27:18 28:3 29:222 30:223 31:224 32:225 33:226 34:227 35:228 36:193 37:229 38:8 39:230 40:231 41:232 42:35 43:3 44:233 45:234 46:235 47:236 
1 1:19 2:197 3:126 4:18 5:216 6:217 7:218 8:24 9:139 10:215 11:141 12:84 13:147 14:150 15:18 16:219 17:166 18:220 19:13 20:3 21:14 22:15 23:98 24:221 25:16 26:48 27:18 28:3 29:222 30:223 31:224 32:225 33:226 34:227 35:228 36:193 37:229 38:8 39:230 40:231 41:232 42:35 43:3 44:233 45:234 46:235 47:236 
1 1:20 2:197 3:126 4:18 5:216 6:217 7:218 8:24 9:139 10:215 11:141 12:84 13:147 14:150 15:18 16:219 17:166 18:220 19:13 20:3 21:14 22:15 23:98 24:221 25:16 26:48 27:18 28:3 29:222 30:223 31:224 32:225 33:226 34:227 35:228 36:193 37:229 38:8 39:230 40:231 41:232 42:35 43:3 44:233 45:234 46:235 47:236 
1 1:24 2:197 3:126 4:18 5:216 6:217 7:218 8:24 9:139 10:215 11:141 12:84 13:147 14:150 15:18 16:219 17:166 18:220 19:13 20:3 21:14 22:15 23:98 24:221 25:16 26:48 27:18 28:3 29:222 30:223 31:224 32:225 33:226 34:227 35:228 36:193 37:229 38:8 39:230 40:231 41:232 42:35 43:3 44:233 45:234 46:235 47:236 
1 1:26 2:197 3:126 4:18 5:216 6:217 7:218 8:24 9:139 10:215 11:141 12:84 13:147 14:150 15:18 16:219 17:166 18:220 19:13 20:3 21:14 22:15 23:98 24:221 25:16 26:48 27:18 28:3 29:222 30:223 31:224 32:225 33:226 34:227 35:228 36:193 37:229 38:8 39:230 40:231 41:232 42:35 43:3 44:233 45:234 46:235 47:236 
1 1:27 2:197 3:126 4:18 5:216 6:217 7:218 8:24 9:139 10:215 11:141 12:84 13:147 14:150 15:18 16:219 17:166 18:220 19:13 20:3 21:14 22:15 23:98 24:221 25:16 26:48 27:18 28:3 29:222 30:223 31:224 32:225 33:226 34:227 35:228 36:193 37:229 38:8 39:230 40:231 41:232 42:35 43:3 44:233 45:234 46:235 47:236 
1 1:31 2:197 3:126 4:18 5:216 6:217 7:218 8:24 9:139 10:215 11:141 12:84 13:147 14:150 15:18 16:219 17:166 18:220 19:13 20:3 21:14 22:15 23:98 24:221 25:16 26:48 27:18 28:3 29:222 30:223 31:224 32:225 33:226 34:227 35:228 36:193 37:229 38:8 39:230 40:231 41:232 42:35 43:3 44:233 45:234 46:235 47:236 
1 1:33 2:197 3:126 4:18 5:216 6:217 7:218 8:24 9:139 10:215 11:141 12:84 13:147 14:150 15:18 16:219 17:166 18:220 19:13 20:3 21:14 22:15 23:98 24:221 25:16 26:48 27:18 28:3 29:222 30:223 31:224 32:225 33:226 34:227 35:228 36:193 37:229 38:8 39:230 40:231 41:232 42:35 43:3 44:233 45:234 46:235 47:236 
1 1:38 2:197 3:126 4:18 5:216 6:217 7:218 8:24 9:139 10:215 11:141 12:84 13:147 14:150 15:18 16:219 17:166 18:220 19:13 20:3 21:14 22:15 23:98 24:221 25:16 26:48 27:18 28:3 29:222 30:223 31:224 32:225 33:226 34:227 35:228 36:193 37:229 38:8 39:230 40:231 41:232 42:35 43:3 44:233 45:234 46:235 47:236 
1 1:39 2:197 3:126 4:18 5:216 6:217 7:218 8:24 9:139 10:215 11:141 12:84 13:147 14:150 15:18 16:219 17:166 18:220 19:13 20:3 21:14 22:15 23:98 24:221 25:16 26:48 27:18 28:3 29:222 30:223 31:224 32:225 33:226 34:227 35:228 36:193 37:229 38:8 39:230 40:231 41:232 42:35 43:3 44:233 45:234 46:235 47:236 
1 1:41 2:197 3:126 4:18 5:216 6:217 7:218 8:24 9:139 10:215 11:141 12:84 13:147 14:150 15:18 16:219 17:166 18:220 19:13 20:3 21:14 22:15 23:98 24:221 25:16 26:48 27:18 28:3 29:222 30:223 31:224 32:225 33:226 34:227 35:228 36:193 37:229 38:8 39:230 40:231 41:232 42:35 43:3 44:233 45:234 46:235 47:236 
1 1:42 2:197 3:126 4:18 5:216 6:217 7:218 8:24 9:139 10:215 11:141 12:84 13:147 14:150 15:18 16:219 17:166 18:220 19:13 20:3 21:14 22:15 23:98 24:221 25:16 26:48 27:18 28:3 29:222 30:223 31:224 32:225 33:226 34:227 35:228 36:193 37:229 38:8 39:230 40:231 41:232 42:35 43:3 44:233 45:234 46:235 47:236 
1 1:45 2:197 3:126 4:18 5:216 6:217 7:218 8:24 9:139 10:215 11:141 12:84 13:147 14:150 15:18 16:219 17:166 18:220 19:13 20:3 21:14 22:15 23:98 24:221 25:16 26:48 27:18 28:3 29:222 30:223 31:224 32:225 33:226 34:227 35:228 36:193 37:229 38:8 39:230 40:231 41:232 42:35 43:3 44:233 45:234 46:235 47:236 
1 1:2 2:237 3:18 4:177 5:124 6:18 7:93 8:238 9:239 10:193 11:229 12:8 13:240 14:241 15:3 16:14 17:15 18:242 19:24 20:243 21:244 22:104 23:2 24:3 25:4 
1 1:6 2:237 3:18 4:177 5:124 6:18 7:93 8:238 9:239 10:193 11:229 12:8 13:240 14:241 15:3 16:14 17:15 18:242 19:24 20:243 21:244 22:104 23:2 24:3 25:4 
1 1:7 2:237 3:18 4:177 5:124 6:18 7:93 8:238 9:239 10:193 11:229 12:8 13:240 14:241 15:3 16:14 17:15 18:242 19:24 20:243 21:244 22:104 23:2 24:3 25:4 
1 1:13 2:237 3:18 4:177 5:124 6:18 7:93 8:238 9:239 10:193 11:229 12:8 13:240 14:241 15:3 16:14 17:15 18:242 19:24 20:243 21:244 22:104 23:2 24:3 25:4 
1 1:14 2:237 3:18 4:177 5:124 6:18 7:93 8:238 9:239 10:193 11:229 12:8 13:240 14:241 15:3 16:14 17:15 18:242 19:24 20:243 21:244 22:104 23:2 24:3 25:4 
1 1:15 2:237 3:18 4:177 5:124 6:18 7:93 8:238 9:239 10:193 11:229 12:8 13:240 14:241 15:3 16:14 17:15 18:242 19:24 20:243 21:244 22:104 23:2 24:3 25:4 
1 1:17 2:237 3:18 4:177 5:124 6:18 7:93 8:238 9:239 10:193 11:229 12:8 13:240 14:241 15:3 16:14 17:15 18:242 19:24 20:243 21:244 22:104 23:2 24:3 25:4 
0.3265557561121673 1:18 2:237 3:18 4:177 5:124 6:18 7:93 8:238 9:239 10:193 11:229 12:8 13:240 14:241 15:3 16:14 17:15 18:242 19:24 20:243 21:244 22:104 23:2 24:3 25:4 
0.5069266001611555 1:22 2:237 3:18 4:177 5:124 6:18 7:93 8:238 9:239 10:193 11:229 12:8 13:240 14:241 15:3 16:14 17:15 18:242 19:24 20:243 21:244 22:104 23:2 24:3 25:4 
1 1:23 2:237 3:18 4:177 5:124 6:18 7:93 8:238 9:239 10:193 11:229 12:8 13:240 14:241 15:3 16:14 17:15 18:242 19:24 20:243 21:244 22:104 23:2 24:3 25:4 
1 1:2 2:245 3:18 4:246 5:232 6:101 7:3 8:247 9:178 10:179 11:248 
1 1:3 2:245 3:18 4:246 5:232 6:101 7:3 8:247 9:178 10:179 11:248 
1 1:5 2:245 3:18 4:246 5:232 6:101 7:3 8:247 9:178 10:179 11:248 
1 1:6 2:245 3:18 4:246 5:232 6:101 7:3 8:247 9:178 10:179 11:248 
1 1:1 2:249 3:66 4:67 5:68 6:69 7:18 8:197 9:38 10:250 11:166 12:24 13:231 14:251 15:252 16:119 17:7 18:213 19:3 20:253 21:35 22:3 23:70 24:254 25:2 26:255 27:80 28:256 29:257 30:258 31:259 32:260 
0.5351969602004945 1:2 2:249 3:66 4:67 5:68 6:69 7:18 8:197 9:38 10:250 11:166 12:24 13:231 14:251 15:252 16:119 17:7 18:213 19:3 20:253 21:35 22:3 23:70 24:254 25:2 26:255 27:80 28:256 29:257 30:258 31:259 32:260 
0.7596184674070783 1:6 2:249 3:66 4:67 5:68 6:69 7:18 8:197 9:38 10:250 11:166 12:24 13:231 14:251 15:252 16:119 17:7 18:213 19:3 20:253 21:35 22:3 23:70 24:254 25:2 26:255 27:80 28:256 29:257 30:258 31:259 32:260 
1 1:7 2:249 3:66 4:67 5:68 6:69 7:18 8:197 9:38 10:250 11:166 12:24 13:231 14:251 15:252 16:119 17:7 18:213 19:3 20:253 21:35 22:3 23:70 24:254 25:2 26:255 27:80 28:256 29:257 30:258 31:259 32:260 
1 1:10 2:249 3:66 4:67 5:68 6:69 7:18 8:197 9:38 10:250 11:166 12:24 13:231 14:251 15:252 16:119 17:7 18:213 19:3 20:253 21:35 22:3 23:70 24:254 25:2 26:255 27:80 28:256 29:257 30:258 31:259 32:260 
1 1:11 2:249 3:66 4:67 5:68 6:69 7:18 8:197 9:38 10:250 11:166 12:24 13:231 14:251 15:252 16:119 17:7 18:213 19:3 20:253 21:35 22:3 23:70 24:254 25:2 26:255 27:80 28:256 29:257 30:258 31:259 32:260 
1 1:12 2:249 3:66 4:67 5:68 6:69 7:18 8:197 9:38 10:250 11:166 12:24 13:231 14:251 15:252 16:119 17:7 18:213 19:3 20:253 21:35 22:3 23:70 24:254 25:2 26:255 27:80 28:256 29:257 30:258 31:259 32:260 
1 1:17 2:249 3:66 4:67 5:68 6:69 7:18 8:197 9:38 10:250 11:166 12:24 13:231 14:251 15:252 16:119 17:7 18:213 19:3 20:253 21:35 22:3 23:70 24:254 25:2 26:255 27:80 28:256 29:257 30:258 31:259 32:260 
1 1:18 2:249 3:66 4:67 5:68 6:69 7:18 8:197 9:38 10:250 11:166 12:24 13:231 14:251 15:252 16:119 17:7 18:213 19:3 20:253 21:35 22:3 23:70 24:254 25:2 26:255 27:80 28:256 29:257 30:258 31:259 32:260 
1 1:20 2:249 3:66 4:67 5:68 6:69 7:18 8:197 9:38 10:250 11:166 12:24 13:231 14:251 15:252 16:119 17:7 18:213 19:3 20:253 21:35 22:3 23:70 24:254 25:2 26:255 27:80 28:256 29:257 30:258 31:259 32:260 
1 1:21 2:249 3:66 4:67 5:68 6:69 7:18 8:197 9:38 10:250 11:166 12:24 13:231 14:251 15:252 16:119 17:7 18:213 19:3 20:253 21:35 22:3 23:70 24:254 25:2 26:255 27:80 28:256 29:257 30:258 31:259 32:260 
0.57653444717559 1:28 2:249 3:66 4:67 5:68 6:69 7:18 8:197 9:38 10:250 11:166 12:24 13:231 14:251 15:252 16:119 17:7 18:213 19:3 20:253 21:35 22:3 23:70 24:254 25:2 26:255 27:80 28:256 29:257 30:258 31:259 32:260 
1 1:30 2:249 3:66 4:67 5:68 6:69 7:18 8:197 9:38 10:250 11:166 12:24 13:231 14:251 15:252 16:119 17:7 18:213 19:3 20:253 21:35 22:3 23:70 24:254 25:2 26:255 27:80 28:256 29:257 30:258 31:259 32:260 
0.5664929068991327 1:0 2:109 3:79 4:80 5:98 6:111 7:83 8:261 9:86 10:2 11:262 12:263 
0.685147457575066 1:2 2:109 3:79 4:80 5:98 6:111 7:83 8:261 9:86 10:2 11:262 12:263 
1 1:5 2:109 3:79 4:80 5:98 6:111 7:83 8:261 9:86 10:2 11:262 12:263 
0.8407750131892689 1:6 2:109 3:79 4:80 5:98 6:111 7:83 8:261 9:86 10:2 11:262 12:263 
0.7827991741604168 1:10 2:109 3:79 4:80 5:98 6:111 7:83 8:261 9:86 10:2 11:262 12:263 
1 1:1 2:52 3:187 4:264 5:137 6:265 7:266 8:267 9:224 10:268 11:166 12:3 13:109 14:247 15:5 16:269 17:166 18:270 
1 1:2 2:52 3:187 4:264 5:137 6:265 7:266 8:267 9:224 10:268 11:166 12:3 13:109 14:247 15:5 16:269 17:166 18:270 
1 1:3 2:52 3:187 4:264 5:137 6:265 7:266 8:267 9:224 10:268 11:166 12:3 13:109 14:247 15:5 16:269 17:166 18:270 
1 1:5 2:52 3:187 4:264 5:137 6:265 7:266 8:267 9:224 10:268 11:166 12:3 13:109 14:247 15:5 16:269 17:166 18:270 
1 1:10 2:52 3:187 4:264 5:137 6:265 7:266 8:267 9:224 10:268 11:166 12:3 13:109 14:247 15:5 16:269 17:166 18:270 
1 1:11 2:52 3:187 4:264 5:137 6:265 7:266 8:267 9:224 10:268 11:166 12:3 13:109 14:247 15:5 16:269 17:166 18:270 
1 1:12 2:52 3:187 4:264 5:137 6:265 7:266 8:267 9:224 10:268 11:166 12:3 13:109 14:247 15:5 16:269 17:166 18:270 
0.5516874686177028 1:0 2:94 3:15 4:23 5:166 6:271 7:272 8:273 9:82 10:2 11:3 12:274 13:275 14:27 15:3 16:276 17:275 18:29 19:277 20:278 21:279 22:82 23:27 24:24 25:280 26:281 
1 1:1 2:94 3:15 4:23 5:166 6:271 7:272 8:273 9:82 10:2 11:3 12:274 13:275 14:27 15:3 16:276 17:275 18:29 19:277 20:278 21:279 22:82 23:27 24:24 25:280 26:281 
1 1:4 2:94 3:15 4:23 5:166 6:271 7:272 8:273 9:82 10:2 11:3 12:274 13:275 14:27 15:3 16:276 17:275 18:29 19:277 20:278 21:279 22:82 23:27 24:24 25:280 26:281 
1 1:6 2:94 3:15 4:23 5:166 6:271 7:272 8:273 9:82 10:2 11:3 12:274 13:275 14:27 15:3 16:276 17:275 18:29 19:277 20:278 21:279 22:82 23:27 24:24 25:280 26:281 
1 1:7 2:94 3:15 4:23 5:166 6:271 7:272 8:273 9:82 10:2 11:3 12:274 13:275 14:27 15:3 16:276 17:275 18:29 19:277 20:278 21:279 22:82 23:27 24:24 25:280 26:281 
0.04695443283758399 1:9 2:94 3:15 4:23 5:166 6:271 7:272 8:273 9:82 10:2 11:3 12:274 13:275 14:27 15:3 16:276 17:275 18:29 19:277 20:278 21:279 22:82 23:27 24:24 25:280 26:281 
0.881874451457103 1:13 2:94 3:15 4:23 5:166 6:271 7:272 8:273 9:82 10:2 11:3 12:274 13:275 14:27 15:3 16:276 17:275 18:29 19:277 20:278 21:279 22:82 23:27 24:24 25:280 26:281 
1 1:14 2:94 3:15 4:23 5:166 6:271 7:272 8:273 9:82 10:2 11:3 12:274 13:275 14:27 15:3 16:276 17:275 18:29 19:277 20:278 21:279 22:82 23:27 24:24 25:280 26:281 
1 1:15 2:94 3:15 4:23 5:166 6:271 7:272 8:273 9:82 10:2 11:3 12:274 13:275 14:27 15:3 16:276 17:275 18:29 19:277 20:278 21:279 22:82 23:27 24:24 25:280 26:281 
1 1:19 2:94 3:15 4:23 5:166 6:271 7:272 8:273 9:82 10:2 11:3 12:274 13:275 14:27 15:3 16:276 17:275 18:29 19:277 20:278 21:279 22:82 23:27 24:24 25:280 26:281 
0.9999654581362329 1:20 2:94 3:15 4:23 5:166 6:271 7:272 8:273 9:82 10:2 11:3 12:274 13:275 14:27 15:3 16:276 17:275 18:29 19:277 20:278 21:279 22:82 23:27 24:24 25:280 26:281 
0.7771387592190661 1:22 2:94 3:15 4:23 5:166 6:271 7:272 8:273 9:82 10:2 11:3 12:274 13:275 14:27 15:3 16:276 17:275 18:29 19:277 20:278 21:279 22:82 23:27 24:24 25:280 26:281 
1 1:23 2:94 3:15 4:23 5:166 6:271 7:272 8:273 9:82 10:2 11:3 12:274 13:275 14:27 15:3 16:276 17:275 18:29 19:277 20:278 21:279 22:82 23:27 24:24 25:280 26:281 
1 1:0 2:72 3:282 4:206 5:24 6:283 7:82 8:254 9:2 10:3 11:276 12:27 13:3 14:284 15:275 16:29 17:24 18:285 19:82 20:78 21:27 22:3 23:276 24:275 25:35 26:156 
1 1:3 2:72 3:282 4:206 5:24 6:283 7:82 8:254 9:2 10:3 11:276 12:27 13:3 14:284 15:275 16:29 17:24 18:285 19:82 20:78 21:27 22:3 23:276 24:275 25:35 26:156 
0.9591745173110284 1:4 2:72 3:282 4:206 5:24 6:283 7:82 8:254 9:2 10:3 11:276 12:27 13:3 14:284 15:275 16:29 17:24 18:285 19:82 20:78 21:27 22:3 23:276 24:275 25:35 26:156 
0.7928669582099066 1:9 2:72 3:282 4:206 5:24 6:283 7:82 8:254 9:2 10:3 11:276 12:27 13:3 14:284 15:275 16:29 17:24 18:285 19:82 20:78 21:27 22:3 23:276 24:275 25:35 26:156 
1 1:11 2:72 3:282 4:206 5:24 6:283 7:82 8:254 9:2 10:3 11:276 12:27 13:3 14:284 15:275 16:29 17:24 18:285 19:82 20:78 21:27 22:3 23:276 24:275 25:35 26:156 
0.5296086889723765 1:12 2:72 3:282 4:206 5:24 6:283 7:82 8:254 9:2 10:3 11:276 12:27 13:3 14:284 15:275 16:29 17:24 18:285 19:82 20:78 21:27 22:3 23:276 24:275 25:35 26:156 
0.02856718085337479 1:15 2:72 3:282 4:206 5:24 6:283 7:82 8:254 9:2 10:3 11:276 12:27 13:3 14:284 15:275 16:29 17:24 18:285 19:82 20:78 21:27 22:3 23:276 24:275 25:35 26:156 
0.4937811048121705 1:17 2:72 3:282 4:206 5:24 6:283 7:82 8:254 9:2 10:3 11:276 12:27 13:3 14:284 15:275 16:29 17:24 18:285 19:82 20:78 21:27 22:3 23:276 24:275 25:35 26:156 
0.991329068035125 1:18 2:72 3:282 4:206 5:24 6:283 7:82 8:254 9:2 10:3 11:276 12:27 13:3 14:284 15:275 16:29 17:24 18:285 19:82 20:78 21:27 22:3 23:276 24:275 25:35 26:156 
0.4994568108137965 1:22 2:72 3:282 4:206 5:24 6:283 7:82 8:254 9:2 10:3 11:276 12:27 13:3 14:284 15:275 16:29 17:24 18:285 19:82 20:78 21:27 22:3 23:276 24:275 25:35 26:156 
1 1:24 2:72 3:282 4:206 5:24 6:283 7:82 8:254 9:2 10:3 11:276 12:27 13:3 14:284 15:275 16:29 17:24 18:285 19:82 20:78 21:27 22:3 23:276 24:275 25:35 26:156 
0.1869050517799888 1:0 2:197 3:107 4:105 5:3 6:137 7:23 8:3 9:247 10:93 11:5 12:286 13:287 14:288 15:18 16:104 17:134 18:289 19:166 20:226 21:35 22:3 23:271 24:290 25:101 26:291 27:292 28:293 29:187 30:189 31:294 32:295 33:296 34:35 35:297 36:298 37:299 
1 1:3 2:197 3:107 4:105 5:3 6:137 7:23 8:3 9:247 10:93 11:5 12:286 13:287 14:288 15:18 16:104 17:134 18:289 19:166 20:226 21:35 22:3 23:271 24:290 25:101 26:291 27:292 28:293 29:187 30:189 31:294 32:295 33:296 34:35 35:297 36:298 37:299 
1 1:4 2:197 3:107 4:105 5:3 6:137 7:23 8:3 9:247 10:93 11:5 12:286 13:287 14:288 15:18 16:104 17:134 18:289 19:166 20:226 21:35 22:3 23:271 24:290 25:101 26:291 27:292 28:293 29:187 30:189 31:294 32:295 33:296 34:35 35:297 36:298 37:299 
1 1:6 2:197 3:107 4:105 5:3 6:137 7:23 8:3 9:247 10:93 11:5 12:286 13:287 14:288 15:18 16:104 17:134 18:289 19:166 20:226 21:35 22:3 23:271 24:290 25:101 26:291 27:292 28:293 29:187 30:189 31:294 32:295 33:296 34:35 35:297 36:298 37:299 
1 1:7 2:197 3:107 4:105 5:3 6:137 7:23 8:3 9:247 10:93 11:5 12:286 13:287 14:288 15:18 16:104 17:134 18:289 19:166 20:226 21:35 22:3 23:271 24:290 25:101 26:291 27:292 28:293 29:187 30:189 31:294 32:295 33:296 34:35 35:297 36:298 37:299 
1 1:16 2:197 3:107 4:105 5:3 6:137 7:23 8:3 9:247 10:93 11:5 12:286 13:287 14:288 15:18 16:104 17:134 18:289 19:166 20:226 21:35 22:3 23:271 24:290 25:101 26:291 27:292 28:293 29:187 30:189 31:294 32:295 33:296 34:35 35:297 36:298 37:299 
1 1:18 2:197 3:107 4:105 5:3 6:137 7:23 8:3 9:247 10:93 11:5 12:286 13:287 14:288 15:18 16:104 17:134 18:289 19:166 20:226 21:35 22:3 23:271 24:290 25:101 26:291 27:292 28:293 29:187 30:189 31:294 32:295 33:296 34:35 35:297 36:298 37:299 
1 1:20 2:197 3:107 4:105 5:3 6:137 7:23 8:3 9:247 10:93 11:5 12:286 13:287 14:288 15:18 16:104 17:134 18:289 19:166 20:226 21:35 22:3 23:271 24:290 25:101 26:291 27:292 28:293 29:187 30:189 31:294 32:295 33:296 34:35 35:297 36:298 37:299 
1 1:21 2:197 3:107 4:105 5:3 6:137 7:23 8:3 9:247 10:93 11:5 12:286 13:287 14:288 15:18 16:104 17:134 18:289 19:166 20:226 21:35 22:3 23:271 24:290 25:101 26:291 27:292 28:293 29:187 30:189 31:294 32:295 33:296 34:35 35:297 36:298 37:299 
1 1:24 2:197 3:107 4:105 5:3 6:137 7:23 8:3 9:247 10:93 11:5 12:286 13:287 14:288 15:18 16:104 17:134 18:289 19:166 20:226 21:35 22:3 23:271 24:290 25:101 26:291 27:292 28:293 29:187 30:189 31:294 32:295 33:296 34:35 35:297 36:298 37:299 
1 1:27 2:197 3:107 4:105 5:3 6:137 7:23 8:3 9:247 10:93 11:5 12:286 13:287 14:288 15:18 16:104 17:134 18:289 19:166 20:226 21:35 22:3 23:271 24:290 25:101 26:291 27:292 28:293 29:187 30:189 31:294 32:295 33:296 34:35 35:297 36:298 37:299 
1 1:28 2:197 3:107 4:105 5:3 6:137 7:23 8:3 9:247 10:93 11:5 12:286 13:287 14:288 15:18 16:104 17:134 18:289 19:166 20:226 21:35 22:3 23:271 24:290 25:101 26:291 27:292 28:293 29:187 30:189 31:294 32:295 33:296 34:35 35:297 36:298 37:299 
1 1:31 2:197 3:107 4:105 5:3 6:137 7:23 8:3 9:247 10:93 11:5 12:286 13:287 14:288 15:18 16:104 17:134 18:289 19:166 20:226 21:35 22:3 23:271 24:290 25:101 26:291 27:292 28:293 29:187 30:189 31:294 32:295 33:296 34:35 35:297 36:298 37:299 
1 1:33 2:197 3:107 4:105 5:3 6:137 7:23 8:3 9:247 10:93 11:5 12:286 13:287 14:288 15:18 16:104 17:134 18:289 19:166 20:226 21:35 22:3 23:271 24:290 25:101 26:291 27:292 28:293 29:187 30:189 31:294 32:295 33:296 34:35 35:297 36:298 37:299 
0.4987741284138 1:34 2:197 3:107 4:105 5:3 6:137 7:23 8:3 9:247 10:93 11:5 12:286 13:287 14:288 15:18 16:104 17:134 18:289 19:166 20:226 21:35 22:3 23:271 24:290 25:101 26:291 27:292 28:293 29:187 30:189 31:294 32:295 33:296 34:35 35:297 36:298 37:299 
1 1:2 2:300 3:18 4:3 5:60 6:44 7:301 8:302 9:303 10:166 11:177 12:5 13:304 14:8 15:78 16:255 17:80 18:305 19:13 20:306 21:8 22:307 23:308 24:166 25:24 26:25 27:251 28:309 29:9 30:310 31:29 32:166 33:48 34:309 35:224 36:212 37:231 
1 1:3 2:300 3:18 4:3 5:60 6:44 7:301 8:302 9:303 10:166 11:177 12:5 13:304 14:8 15:78 16:255 17:80 18:305 19:13 20:306 21:8 22:307 23:308 24:166 25:24 26:25 27:251 28:309 29:9 30:310 31:29 32:166 33:48 34:309 35:224 36:212 37:231 
1 1:6 2:300 3:18 4:3 5:60 6:44 7:301 8:302 9:303 10:166 11:177 12:5 13:304 14:8 15:78 16:255 17:80 18:305 19:13 20:306 21:8 22:307 23:308 24:166 25:24 26:25 27:251 28:309 29:9 30:310 31:29 32:166 33:48 34:309 35:224 36:212 37:231 
1 1:9 2:300 3:18 4:3 5:60 6:44 7:301 8:302 9:303 10:166 11:177 12:5 13:304 14:8 15:78 16:255 17:80 18:305 19:13 20:306 21:8 22:307 23:308 24:166 25:24 26:25 27:251 28:309 29:9 30:310 31:29 32:166 33:48 34:309 35:224 36:212 37:231 
1 1:14 2:300 3:18 4:3 5:60 6:44 7:301 8:302 9:303 10:166 11:177 12:5 13:304 14:8 15:78 16:255 17:80 18:305 19:13 20:306 21:8 22:307 23:308 24:166 25:24 26:25 27:251 28:309 29:9 30:310 31:29 32:166 33:48 34:309 35:224 36:212 37:231 
1 1:15 2:300 3:18 4:3 5:60 6:44 7:301 8:302 9:303 10:166 11:177 12:5 13:304 14:8 15:78 16:255 17:80 18:305 19:13 20:306 21:8 22:307 23:308 24:166 25:24 26:25 27:251 28:309 29:9 30:310 31:29 32:166 33:48 34:309 35:224 36:212 37:231 
1 1:23 2:300 3:18 4:3 5:60 6:44 7:301 8:302 9:303 10:166 11:177 12:5 13:304 14:8 15:78 16:255 17:80 18:305 19:13 20:306 21:8 22:307 23:308 24:166 25:24 26:25 27:251 28:309 29:9 30:310 31:29 32:166 33:48 34:309 35:224 36:212 37:231 
1 1:24 2:300 3:18 4:3 5:60 6:44 7:301 8:302 9:303 10:166 11:177 12:5 13:304 14:8 15:78 16:255 17:80 18:305 19:13 20:306 21:8 22:307 23:308 24:166 25:24 26:25 27:251 28:309 29:9 30:310 31:29 32:166 33:48 34:309 35:224 36:212 37:231 
1 1:25 2:300 3:18 4:3 5:60 6:44 7:301 8:302 9:303 10:166 11:177 12:5 13:304 14:8 15:78 16:255 17:80 18:305 19:13 20:306 21:8 22:307 23:308 24:166 25:24 26:25 27:251 28:309 29:9 30:310 31:29 32:166 33:48 34:309 35:224 36:212 37:231 
1 1:28 2:300 3:18 4:3 5:60 6:44 7:301 8:302 9:303 10:166 11:177 12:5 13:304 14:8 15:78 16:255 17:80 18:305 19:13 20:306 21:8 22:307 23:308 24:166 25:24 26:25 27:251 28:309 29:9 30:310 31:29 32:166 33:48 34:309 35:224 36:212 37:231 
1 1:31 2:300 3:18 4:3 5:60 6:44 7:301 8:302 9:303 10:166 11:177 12:5 13:304 14:8 15:78 16:255 17:80 18:305 19:13 20:306 21:8 22:307 23:308 24:166 25:24 26:25 27:251 28:309 29:9 30:310 31:29 32:166 33:48 34:309 35:224 36:212 37:231 
1 1:0 2:71 3:18 4:177 5:311 6:66 7:312 8:166 9:3 10:75 11:93 12:252 13:313 14:314 15:3 16:306 17:315 18:35 19:42 20:43 21:8 22:119 23:316 24:59 25:90 26:317 27:318 
0.2088476184454296 1:2 2:71 3:18 4:177 5:311 6:66 7:312 8:166 9:3 10:75 11:93 12:252 13:313 14:314 15:3 16:306 17:315 18:35 19:42 20:43 21:8 22:119 23:316 24:59 25:90 26:317 27:318 
1 1:4 2:71 3:18 4:177 5:311 6:66 7:312 8:166 9:3 10:75 11:93 12:252 13:313 14:314 15:3 16:306 17:315 18:35 19:42 20:43 21:8 22:119 23:316 24:59 25:90 26:317 27:318 
1 1:5 2:71 3:18 4:177 5:311 6:66 7:312 8:166 9:3 10:75 11:93 12:252 13:313 14:314 15:3 16:306 17:315 18:35 19:42 20:43 21:8 22:119 23:316 24:59 25:90 26:317 27:318 
1 1:7 2:71 3:18 4:177 5:311 6:66 7:312 8:166 9:3 10:75 11:93 12:252 13:313 14:314 15:3 16:306 17:315 18:35 19:42 20:43 21:8 22:119 23:316 24:59 25:90 26:317 27:318 
1 1:8 2:71 3:18 4:177 5:311 6:66 7:312 8:166 9:3 10:75 11:93 12:252 13:313 14:314 15:3 16:306 17:315 18:35 19:42 20:43 21:8 22:119 23:316 24:59 25:90 26:317 27:318 
1 1:13 2:71 3:18 4:177 5:311 6:66 7:312 8:166 9:3 10:75 11:93 12:252 13:313 14:314 15:3 16:306 17:315 18:35 19:42 20:43 21:8 22:119 23:316 24:59 25:90 26:317 27:318 
1 1:14 2:71 3:18 4:177 5:311 6:66 7:312 8:166 9:3 10:75 11:93 12:252 13:313 14:314 15:3 16:306 17:315 18:35 19:42 20:43 21:8 22:119 23:316 24:59 25:90 26:317 27:318 
1 1:15 2:71 3:18 4:177 5:311 6:66 7:312 8:166 9:3 10:75 11:93 12:252 13:313 14:314 15:3 16:306 17:315 18:35 19:42 20:43 21:8 22:119 23:316 24:59 25:90 26:317 27:318 
1 1:17 2:71 3:18 4:177 5:311 6:66 7:312 8:166 9:3 10:75 11:93 12:252 13:313 14:314 15:3 16:306 17:315 18:35 19:42 20:43 21:8 22:119 23:316 24:59 25:90 26:317 27:318 
1 1:18 2:71 3:18 4:177 5:311 6:66 7:312 8:166 9:3 10:75 11:93 12:252 13:313 14:314 15:3 16:306 17:315 18:35 19:42 20:43 21:8 22:119 23:316 24:59 25:90 26:317 27:318 
1 1:23 2:71 3:18 4:177 5:311 6:66 7:312 8:166 9:3 10:75 11:93 12:252 13:313 14:314 15:3 16:306 17:315 18:35 19:42 20:43 21:8 22:119 23:316 24:59 25:90 26:317 27:318 
1 1:24 2:71 3:18 4:177 5:311 6:66 7:312 8:166 9:3 10:75 11:93 12:252 13:313 14:314 15:3 16:306 17:315 18:35 19:42 20:43 21:8 22:119 23:316 24:59 25:90 26:317 27:318 
0.563959572771082 1:25 2:71 3:18 4:177 5:311 6:66 7:312 8:166 9:3 10:75 11:93 12:252 13:313 14:314 15:3 16:306 17:315 18:35 19:42 20:43 21:8 22:119 23:316 24:59 25:90 26:317 27:318 
1 1:0 2:319 3:320 4:116 5:5 6:214 7:321 8:48 9:41 10:111 11:3 12:322 13:323 14:293 15:197 16:38 17:31 18:324 19:166 20:80 21:193 22:119 23:325 24:326 25:13 26:306 
1 1:2 2:319 3:320 4:116 5:5 6:214 7:321 8:48 9:41 10:111 11:3 12:322 13:323 14:293 15:197 16:38 17:31 18:324 19:166 20:80 21:193 22:119 23:325 24:326 25:13 26:306 
1 1:4 2:319 3:320 4:116 5:5 6:214 7:321 8:48 9:41 10:111 11:3 12:322 13:323 14:293 15:197 16:38 17:31 18:324 19:166 20:80 21:193 22:119 23:325 24:326 25:13 26:306 
1 1:6 2:319 3:320 4:116 5:5 6:214 7:321 8:48 9:41 10:111 11:3 12:322 13:323 14:293 15:197 16:38 17:31 18:324 19:166 20:80 21:193 22:119 23:325 24:326 25:13 26:306 
1 1:9 2:319 3:320 4:116 5:5 6:214 7:321 8:48 9:41 10:111 11:3 12:322 13:323 14:293 15:197 16:38 17:31 18:324 19:166 20:80 21:193 22:119 23:325 24:326 25:13 26:306 
1 1:10 2:319 3:320 4:116 5:5 6:214 7:321 8:48 9:41 10:111 11:3 12:322 13:323 14:293 15:197 16:38 17:31 18:324 19:166 20:80 21:193 22:119 23:325 24:326 25:13 26:306 
0.2102738556387415 1:13 2:319 3:320 4:116 5:5 6:214 7:321 8:48 9:41 10:111 11:3 12:322 13:323 14:293 15:197 16:38 17:31 18:324 19:166 20:80 21:193 22:119 23:325 24:326 25:13 26:306 
1 1:14 2:319 3:320 4:116 5:5 6:214 7:321 8:48 9:41 10:111 11:3 12:322 13:323 14:293 15:197 16:38 17:31 18:324 19:166 20:80 21:193 22:119 23:325 24:326 25:13 26:306 
1 1:15 2:319 3:320 4:116 5:5 6:214 7:321 8:48 9:41 10:111 11:3 12:322 13:323 14:293 15:197 16:38 17:31 18:324 19:166 20:80 21:193 22:119 23:325 24:326 25:13 26:306 
1 1:16 2:319 3:320 4:116 5:5 6:214 7:321 8:48 9:41 10:111 11:3 12:322 13:323 14:293 15:197 16:38 17:31 18:324 19:166 20:80 21:193 22:119 23:325 24:326 25:13 26:306 
1 1:18 2:319 3:320 4:116 5:5 6:214 7:321 8:48 9:41 10:111 11:3 12:322 13:323 14:293 15:197 16:38 17:31 18:324 19:166 20:80 21:193 22:119 23:325 24:326 25:13 26:306 
1 1:2 2:327 3:18 4:328 5:329 6:18 7:63 8:231 9:204 10:2 11:3 12:75 13:31 14:330 15:118 16:331 17:332 18:257 19:324 20:333 21:334 
1 1:5 2:327 3:18 4:328 5:329 6:18 7:63 8:231 9:204 10:2 11:3 12:75 13:31 14:330 15:118 16:331 17:332 18:257 19:324 20:333 21:334 
1 1:6 2:327 3:18 4:328 5:329 6:18 7:63 8:231 9:204 10:2 11:3 12:75 13:31 14:330 15:118 16:331 17:332 18:257 19:324 20:333 21:334 
0.8934650768729622 1:7 2:327 3:18 4:328 5:329 6:18 7:63 8:231 9:204 10:2 11:3 12:75 13:31 14:330 15:118 16:331 17:332 18:257 19:324 20:333 21:334 
0.1216445391733208 1:10 2:327 3:18 4:328 5:329 6:18 7:63 8:231 9:204 10:2 11:3 12:75 13:31 14:330 15:118 16:331 17:332 18:257 19:324 20:333 21:334 
1 1:11 2:327 3:18 4:328 5:329 6:18 7:63 8:231 9:204 10:2 11:3 12:75 13:31 14:330 15:118 16:331 17:332 18:257 19:324 20:333 21:334 
1 1:12 2:327 3:18 4:328 5:329 6:18 7:63 8:231 9:204 10:2 11:3 12:75 13:31 14:330 15:118 16:331 17:332 18:257 19:324 20:333 21:334 
1 1:16 2:327 3:18 4:328 5:329 6:18 7:63 8:231 9:204 10:2 11:3 12:75 13:31 14:330 15:118 16:331 17:332 18:257 19:324 20:333 21:334 
1 1:17 2:327 3:18 4:328 5:329 6:18 7:63 8:231 9:204 10:2 11:3 12:75 13:31 14:330 15:118 16:331 17:332 18:257 19:324 20:333 21:334 
1 1:0 2:335 3:277 4:336 5:337 6:208 7:338 8:35 9:24 10:339 11:35 12:340 13:2 14:197 15:38 16:31 17:324 18:266 
1 1:4 2:335 3:277 4:336 5:337 6:208 7:338 8:35 9:24 10:339 11:35 12:340 13:2 14:197 15:38 16:31 17:324 18:266 
1 1:5 2:335 3:277 4:336 5:337 6:208 7:338 8:35 9:24 10:339 11:35 12:340 13:2 14:197 15:38 16:31 17:324 18:266 
1 1:7 2:335 3:277 4:336 5:337 6:208 7:338 8:35 9:24 10:339 11:35 12:340 13:2 14:197 15:38 16:31 17:324 18:266 
1 1:8 2:335 3:277 4:336 5:337 6:208 7:338 8:35 9:24 10:339 11:35 12:340 13:2 14:197 15:38 16:31 17:324 18:266 
0.5042417903024813 1:10 2:335 3:277 4:336 5:337 6:208 7:338 8:35 9:24 10:339 11:35 12:340 13:2 14:197 15:38 16:31 17:324 18:266 
0.3333542776359139 1:13 2:335 3:277 4:336 5:337 6:208 7:338 8:35 9:24 10:339 11:35 12:340 13:2 14:197 15:38 16:31 17:324 18:266 
0.5128486059523117 1:16 2:335 3:277 4:336 5:337 6:208 7:338 8:35 9:24 10:339 11:35 12:340 13:2 14:197 15:38 16:31 17:324 18:266 
1 1:1 2:249 3:159 4:341 5:302 6:342 7:8 8:143 9:343 10:29 11:344 12:345 13:27 14:143 15:346 16:29 17:347 18:345 19:348 20:71 
1 1:2 2:249 3:159 4:341 5:302 6:342 7:8 8:143 9:343 10:29 11:344 12:345 13:27 14:143 15:346 16:29 17:347 18:345 19:348 20:71 
0.4776403475898284 1:3 2:249 3:159 4:341 5:302 6:342 7:8 8:143 9:343 10:29 11:344 12:345 13:27 14:143 15:346 16:29 17:347 18:345 19:348 20:71 
0.3210566240080475 1:6 2:249 3:159 4:341 5:302 6:342 7:8 8:143 9:343 10:29 11:344 12:345 13:27 14:143 15:346 16:29 17:347 18:345 19:348 20:71 
1 1:7 2:249 3:159 4:341 5:302 6:342 7:8 8:143 9:343 10:29 11:344 12:345 13:27 14:143 15:346 16:29 17:347 18:345 19:348 20:71 
0.9387982898098696 1:9 2:249 3:159 4:341 5:302 6:342 7:8 8:143 9:343 10:29 11:344 12:345 13:27 14:143 15:346 16:29 17:347 18:345 19:348 20:71 
0.4401230923930143 1:10 2:249 3:159 4:341 5:302 6:342 7:8 8:143 9:343 10:29 11:344 12:345 13:27 14:143 15:346 16:29 17:347 18:345 19:348 20:71 
0.2737501805736265 1:12 2:249 3:159 4:341 5:302 6:342 7:8 8:143 9:343 10:29 11:344 12:345 13:27 14:143 15:346 16:29 17:347 18:345 19:348 20:71 
1 1:13 2:249 3:159 4:341 5:302 6:342 7:8 8:143 9:343 10:29 11:344 12:345 13:27 14:143 15:346 16:29 17:347 18:345 19:348 20:71 
0.6043374719513042 1:18 2:249 3:159 4:341 5:302 6:342 7:8 8:143 9:343 10:29 11:344 12:345 13:27 14:143 15:346 16:29 17:347 18:345 19:348 20:71 
1 1:0 2:349 3:350 4:166 5:13 6:3 7:4 8:351 9:226 10:352 11:353 12:345 13:18 14:3 15:75 16:193 17:119 18:77 19:8 20:78 21:80 22:8 23:81 24:82 25:18 26:307 27:8 28:354 29:63 30:231 31:212 32:29 33:308 34:166 35:3 36:355 37:35 38:42 39:43 40:178 41:356 
1 1:4 2:349 3:350 4:166 5:13 6:3 7:4 8:351 9:226 10:352 11:353 12:345 13:18 14:3 15:75 16:193 17:119 18:77 19:8 20:78 21:80 22:8 23:81 24:82 25:18 26:307 27:8 28:354 29:63 30:231 31:212 32:29 33:308 34:166 35:3 36:355 37:35 38:42 39:43 40:178 41:356 
1 1:5 2:349 3:350 4:166 5:13 6:3 7:4 8:351 9:226 10:352 11:353 12:345 13:18 14:3 15:75 16:193 17:119 18:77 19:8 20:78 21:80 22:8 23:81 24:82 25:18 26:307 27:8 28:354 29:63 30:231 31:212 32:29 33:308 34:166 35:3 36:355 37:35 38:42 39:43 40:178 41:356 
0.92487883517771 1:7 2:349 3:350 4:166 5:13 6:3 7:4 8:351 9:226 10:352 11:353 12:345 13:18 14:3 15:75 16:193 17:119 18:77 19:8 20:78 21:80 22:8 23:81 24:82 25:18 26:307 27:8 28:354 29:63 30:231 31:212 32:29 33:308 34:166 35:3 36:355 37:35 38:42 39:43 40:178 41:356 
1 1:9 2:349 3:350 4:166 5:13 6:3 7:4 8:351 9:226 10:352 11:353 12:345 13:18 14:3 15:75 16:193 17:119 18:77 19:8 20:78 21:80 22:8 23:81 24:82 25:18 26:307 27:8 28:354 29:63 30:231 31:212 32:29 33:308 34:166 35:3 36:355 37:35 38:42 39:43 40:178 41:356 
1 1:10 2:349 3:350 4:166 5:13 6:3 7:4 8:351 9:226 10:352 11:353 12:345 13:18 14:3 15:75 16:193 17:119 18:77 19:8 20:78 21:80 22:8 23:81 24:82 25:18 26:307 27:8 28:354 29:63 30:231 31:212 32:29 33:308 34:166 35:3 36:355 37:35 38:42 39:43 40:178 41:356 
1 1:12 2:349 3:350 4:166 5:13 6:3 7:4 8:351 9:226 10:352 11:353 12:345 13:18 14:3 15:75 16:193 17:119 18:77 19:8 20:78 21:80 22:8 23:81 24:82 25:18 26:307 27:8 28:354 29:63 30:231 31:212 32:29 33:308 34:166 35:3 36:355 37:35 38:42 39:43 40:178 41:356 
1 1:13 2:349 3:350 4:166 5:13 6:3 7:4 8:351 9:226 10:352 11:353 12:345 13:18 14:3 15:75 16:193 17:119 18:77 19:8 20:78 21:80 22:8 23:81 24:82 25:18 26:307 27:8 28:354 29:63 30:231 31:212 32:29 33:308 34:166 35:3 36:355 37:35 38:42 39:43 40:178 41:356 
1 1:19 2:349 3:350 4:166 5:13 6:3 7:4 8:351 9:226 10:352 11:353 12:345 13:18 14:3 15:75 16:193 17:119 18:77 19:8 20:78 21:80 22:8 23:81 24:82 25:18 26:307 27:8 28:354 29:63 30:231 31:212 32:29 33:308 34:166 35:3 36:355 37:35 38:42 39:43 40:178 41:356 
1 1:21 2:349 3:350 4:166 5:13 6:3 7:4 8:351 9:226 10:352 11:353 12:345 13:18 14:3 15:75 16:193 17:119 18:77 19:8 20:78 21:80 22:8 23:81 24:82 25:18 26:307 27:8 28:354 29:63 30:231 31:212 32:29 33:308 34:166 35:3 36:355 37:35 38:42 39:43 40:178 41:356 
1 1:22 2:349 3:350 4:166 5:13 6:3 7:4 8:351 9:226 10:352 11:353 12:345 13:18 14:3 15:75 16:193 17:119 18:77 19:8 20:78 21:80 22:8 23:81 24:82 25:18 26:307 27:8 28:354 29:63 30:231 31:212 32:29 33:308 34:166 35:3 36:355 37:35 38:42 39:43 40:178 41:356 
1 1:27 2:349 3:350 4:166 5:13 6:3 7:4 8:351 9:226 10:352 11:353 12:345 13:18 14:3 15:75 16:193 17:119 18:77 19:8 20:78 21:80 22:8 23:81 24:82 25:18 26:307 27:8 28:354 29:63 30:231 31:212 32:29 33:308 34:166 35:3 36:355 37:35 38:42 39:43 40:178 41:356 
1 1:28 2:349 3:350 4:166 5:13 6:3 7:4 8:351 9:226 10:352 11:353 12:345 13:18 14:3 15:75 16:193 17:119 18:77 19:8 20:78 21:80 22:8 23:81 24:82 25:18 26:307 27:8 28:354 29:63 30:231 31:212 32:29 33:308 34:166 35:3 36:355 37:35 38:42 39:43 40:178 41:356 
1 1:29 2:349 3:350 4:166 5:13 6:3 7:4 8:351 9:226 10:352 11:353 12:345 13:18 14:3 15:75 16:193 17:119 18:77 19:8 20:78 21:80 22:8 23:81 24:82 25:18 26:307 27:8 28:354 29:63 30:231 31:212 32:29 33:308 34:166 35:3 36:355 37:35 38:42 39:43 40:178 41:356 
1 1:33 2:349 3:350 4:166 5:13 6:3 7:4 8:351 9:226 10:352 11:353 12:345 13:18 14:3 15:75 16:193 17:119 18:77 19:8 20:78 21:80 22:8 23:81 24:82 25:18 26:307 27:8 28:354 29:63 30:231 31:212 32:29 33:308 34:166 35:3 36:355 37:35 38:42 39:43 40:178 41:356 
1 1:34 2:349 3:350 4:166 5:13 6:3 7:4 8:351 9:226 10:352 11:353 12:345 13:18 14:3 15:75 16:193 17:119 18:77 19:8 20:78 21:80 22:8 23:81 24:82 25:18 26:307 27:8 28:354 29:63 30:231 31:212 32:29 33:308 34:166 35:3 36:355 37:35 38:42 39:43 40:178 41:356 
1 1:36 2:349 3:350 4:166 5:13 6:3 7:4 8:351 9:226 10:352 11:353 12:345 13:18 14:3 15:75 16:193 17:119 18:77 19:8 20:78 21:80 22:8 23:81 24:82 25:18 26:307 27:8 28:354 29:63 30:231 31:212 32:29 33:308 34:166 35:3 36:355 37:35 38:42 39:43 40:178 41:356 
1 1:37 2:349 3:350 4:166 5:13 6:3 7:4 8:351 9:226 10:352 11:353 12:345 13:18 14:3 15:75 16:193 17:119 18:77 19:8 20:78 21:80 22:8 23:81 24:82 25:18 26:307 27:8 28:354 29:63 30:231 31:212 32:29 33:308 34:166 35:3 36:355 37:35 38:42 39:43 40:178 41:356 
0.2621604989412715 1:0 2:266 3:31 4:357 5:358 
0.26216049894127 1:3 2:266 3:31 4:357 5:358 
0.9597812203921208 1:0 2:94 3:359 4:360 5:361 6:2 7:362 8:341 9:213 10:363 11:181 12:364 13:365 
0.3908577038845936 1:3 2:94 3:359 4:360 5:361 6:2 7:362 8:341 9:213 10:363 11:181 12:364 13:365 
1 1:5 2:94 3:359 4:360 5:361 6:2 7:362 8:341 9:213 10:363 11:181 12:364 13:365 
1 1:6 2:94 3:359 4:360 5:361 6:2 7:362 8:341 9:213 10:363 11:181 12:364 13:365 
1 1:8 2:94 3:359 4:360 5:361 6:2 7:362 8:341 9:213 10:363 11:181 12:364 13:365 
1 1:10 2:94 3:359 4:360 5:361 6:2 7:362 8:341 9:213 10:363 11:181 12:364 13:365 
0.3306826728075409 1:1 2:366 3:90 4:367 5:105 6:166 7:3 8:222 9:91 10:44 11:368 12:8 13:369 14:171 15:27 16:3 17:370 18:371 19:90 20:18 21:372 22:44 23:373 24:3 25:91 26:374 27:375 28:376 29:18 30:377 31:3 32:378 33:379 34:380 35:381 36:382 37:297 38:293 39:383 40:384 
1 1:2 2:366 3:90 4:367 5:105 6:166 7:3 8:222 9:91 10:44 11:368 12:8 13:369 14:171 15:27 16:3 17:370 18:371 19:90 20:18 21:372 22:44 23:373 24:3 25:91 26:374 27:375 28:376 29:18 30:377 31:3 32:378 33:379 34:380 35:381 36:382 37:297 38:293 39:383 40:384 
1 1:5 2:366 3:90 4:367 5:105 6:166 7:3 8:222 9:91 10:44 11:368 12:8 13:369 14:171 15:27 16:3 17:370 18:371 19:90 20:18 21:372 22:44 23:373 24:3 25:91 26:374 27:375 28:376 29:18 30:377 31:3 32:378 33:379 34:380 35:381 36:382 37:297 38:293 39:383 40:384 
1 1:6 2:366 3:90 4:367 5:105 6:166 7:3 8:222 9:91 10:44 11:368 12:8 13:369 14:171 15:27 16:3 17:370 18:371 19:90 20:18 21:372 22:44 23:373 24:3 25:91 26:374 27:375 28:376 29:18 30:377 31:3 32:378 33:379 34:380 35:381 36:382 37:297 38:293 39:383 40:384 
1 1:7 2:366 3:90 4:367 5:105 6:166 7:3 8:222 9:91 10:44 11:368 12:8 13:369 14:171 15:27 16:3 17:370 18:371 19:90 20:18 21:372 22:44 23:373 24:3 25:91 26:374 27:375 28:376 29:18 30:377 31:3 32:378 33:379 34:380 35:381 36:382 37:297 38:293 39:383 40:384 
1 1:12 2:366 3:90 4:367 5:105 6:166 7:3 8:222 9:91 10:44 11:368 12:8 13:369 14:171 15:27 16:3 17:370 18:371 19:90 20:18 21:372 22:44 23:373 24:3 25:91 26:374 27:375 28:376 29:18 30:377 31:3 32:378 33:379 34:380 35:381 36:382 37:297 38:293 39:383 40:384 
1 1:14 2:366 3:90 4:367 5:105 6:166 7:3 8:222 9:91 10:44 11:368 12:8 13:369 14:171 15:27 16:3 17:370 18:371 19:90 20:18 21:372 22:44 23:373 24:3 25:91 26:374 27:375 28:376 29:18 30:377 31:3 32:378 33:379 34:380 35:381 36:382 37:297 38:293 39:383 40:384 
1 1:15 2:366 3:90 4:367 5:105 6:166 7:3 8:222 9:91 10:44 11:368 12:8 13:369 14:171 15:27 16:3 17:370 18:371 19:90 20:18 21:372 22:44 23:373 24:3 25:91 26:374 27:375 28:376 29:18 30:377 31:3 32:378 33:379 34:380 35:381 36:382 37:297 38:293 39:383 40:384 
1 1:16 2:366 3:90 4:367 5:105 6:166 7:3 8:222 9:91 10:44 11:368 12:8 13:369 14:171 15:27 16:3 17:370 18:371 19:90 20:18 21:372 22:44 23:373 24:3 25:91 26:374 27:375 28:376 29:18 30:377 31:3 32:378 33:379 34:380 35:381 36:382 37:297 38:293 39:383 40:384 
0.3475694712916151 1:17 2:366 3:90 4:367 5:105 6:166 7:3 8:222 9:91 10:44 11:368 12:8 13:369 14:171 15:27 16:3 17:370 18:371 19:90 20:18 21:372 22:44 23:373 24:3 25:91 26:374 27:375 28:376 29:18 30:377 31:3 32:378 33:379 34:380 35:381 36:382 37:297 38:293 39:383 40:384 
0.1670451789490416 1:19 2:366 3:90 4:367 5:105 6:166 7:3 8:222 9:91 10:44 11:368 12:8 13:369 14:171 15:27 16:3 17:370 18:371 19:90 20:18 21:372 22:44 23:373 24:3 25:91 26:374 27:375 28:376 29:18 30:377 31:3 32:378 33:379 34:380 35:381 36:382 37:297 38:293 39:383 40:384 
1 1:22 2:366 3:90 4:367 5:105 6:166 7:3 8:222 9:91 10:44 11:368 12:8 13:369 14:171 15:27 16:3 17:370 18:371 19:90 20:18 21:372 22:44 23:373 24:3 25:91 26:374 27:375 28:376 29:18 30:377 31:3 32:378 33:379 34:380 35:381 36:382 37:297 38:293 39:383 40:384 
1 1:23 2:366 3:90 4:367 5:105 6:166 7:3 8:222 9:91 10:44 11:368 12:8 13:369 14:171 15:27 16:3 17:370 18:371 19:90 20:18 21:372 22:44 23:373 24:3 25:91 26:374 27:375 28:376 29:18 30:377 31:3 32:378 33:379 34:380 35:381 36:382 37:297 38:293 39:383 40:384 
1 1:25 2:366 3:90 4:367 5:105 6:166 7:3 8:222 9:91 10:44 11:368 12:8 13:369 14:171 15:27 16:3 17:370 18:371 19:90 20:18 21:372 22:44 23:373 24:3 25:91 26:374 27:375 28:376 29:18 30:377 31:3 32:378 33:379 34:380 35:381 36:382 37:297 38:293 39:383 40:384 
1 1:26 2:366 3:90 4:367 5:105 6:166 7:3 8:222 9:91 10:44 11:368 12:8 13:369 14:171 15:27 16:3 17:370 18:371 19:90 20:18 21:372 22:44 23:373 24:3 25:91 26:374 27:375 28:376 29:18 30:377 31:3 32:378 33:379 34:380 35:381 36:382 37:297 38:293 39:383 40:384 
0.08934980621656816 1:29 2:366 3:90 4:367 5:105 6:166 7:3 8:222 9:91 10:44 11:368 12:8 13:369 14:171 15:27 16:3 17:370 18:371 19:90 20:18 21:372 22:44 23:373 24:3 25:91 26:374 27:375 28:376 29:18 30:377 31:3 32:378 33:379 34:380 35:381 36:382 37:297 38:293 39:383 40:384 
0.4169427091391618 1:30 2:366 3:90 4:367 5:105 6:166 7:3 8:222 9:91 10:44 11:368 12:8 13:369 14:171 15:27 16:3 17:370 18:371 19:90 20:18 21:372 22:44 23:373 24:3 25:91 26:374 27:375 28:376 29:18 30:377 31:3 32:378 33:379 34:380 35:381 36:382 37:297 38:293 39:383 40:384 
0.1887715399358 1:31 2:366 3:90 4:367 5:105 6:166 7:3 8:222 9:91 10:44 11:368 12:8 13:369 14:171 15:27 16:3 17:370 18:371 19:90 20:18 21:372 22:44 23:373 24:3 25:91 26:374 27:375 28:376 29:18 30:377 31:3 32:378 33:379 34:380 35:381 36:382 37:297 38:293 39:383 40:384 
1 1:32 2:366 3:90 4:367 5:105 6:166 7:3 8:222 9:91 10:44 11:368 12:8 13:369 14:171 15:27 16:3 17:370 18:371 19:90 20:18 21:372 22:44 23:373 24:3 25:91 26:374 27:375 28:376 29:18 30:377 31:3 32:378 33:379 34:380 35:381 36:382 37:297 38:293 39:383 40:384 
0.6581676708350521 1:38 2:366 3:90 4:367 5:105 6:166 7:3 8:222 9:91 10:44 11:368 12:8 13:369 14:171 15:27 16:3 17:370 18:371 19:90 20:18 21:372 22:44 23:373 24:3 25:91 26:374 27:375 28:376 29:18 30:377 31:3 32:378 33:379 34:380 35:381 36:382 37:297 38:293 39:383 40:384 
0.9676689206154196 1:0 2:385 3:53 4:386 5:166 6:2 7:3 8:387 9:51 10:3 11:89 12:90 13:91 14:193 15:388 16:389 17:390 18:391 19:8 20:392 21:393 22:18 23:394 24:24 25:395 26:396 27:397 28:16 29:63 30:338 31:35 32:42 33:398 34:59 35:399 36:400 37:401 
1 1:1 2:385 3:53 4:386 5:166 6:2 7:3 8:387 9:51 10:3 11:89 12:90 13:91 14:193 15:388 16:389 17:390 18:391 19:8 20:392 21:393 22:18 23:394 24:24 25:395 26:396 27:397 28:16 29:63 30:338 31:35 32:42 33:398 34:59 35:399 36:400 37:401 
1 1:5 2:385 3:53 4:386 5:166 6:2 7:3 8:387 9:51 10:3 11:89 12:90 13:91 14:193 15:388 16:389 17:390 18:391 19:8 20:392 21:393 22:18 23:394 24:24 25:395 26:396 27:397 28:16 29:63 30:338 31:35 32:42 33:398 34:59 35:399 36:400 37:401 
0.7720885592664148 1:6 2:385 3:53 4:386 5:166 6:2 7:3 8:387 9:51 10:3 11:89 12:90 13:91 14:193 15:388 16:389 17:390 18:391 19:8 20:392 21:393 22:18 23:394 24:24 25:395 26:396 27:397 28:16 29:63 30:338 31:35 32:42 33:398 34:59 35:399 36:400 37:401 
0.09887187584251556 1:10 2:385 3:53 4:386 5:166 6:2 7:3 8:387 9:51 10:3 11:89 12:90 13:91 14:193 15:388 16:389 17:390 18:391 19:8 20:392 21:393 22:18 23:394 24:24 25:395 26:396 27:397 28:16 29:63 30:338 31:35 32:42 33:398 34:59 35:399 36:400 37:401 
1 1:11 2:385 3:53 4:386 5:166 6:2 7:3 8:387 9:51 10:3 11:89 12:90 13:91 14:193 15:388 16:389 17:390 18:391 19:8 20:392 21:393 22:18 23:394 24:24 25:395 26:396 27:397 28:16 29:63 30:338 31:35 32:42 33:398 34:59 35:399 36:400 37:401 
1 1:14 2:385 3:53 4:386 5:166 6:2 7:3 8:387 9:51 10:3 11:89 12:90 13:91 14:193 15:388 16:389 17:390 18:391 19:8 20:392 21:393 22:18 23:394 24:24 25:395 26:396 27:397 28:16 29:63 30:338 31:35 32:42 33:398 34:59 35:399 36:400 37:401 
1 1:15 2:385 3:53 4:386 5:166 6:2 7:3 8:387 9:51 10:3 11:89 12:90 13:91 14:193 15:388 16:389 17:390 18:391 19:8 20:392 21:393 22:18 23:394 24:24 25:395 26:396 27:397 28:16 29:63 30:338 31:35 32:42 33:398 34:59 35:399 36:400 37:401 
1 1:18 2:385 3:53 4:386 5:166 6:2 7:3 8:387 9:51 10:3 11:89 12:90 13:91 14:193 15:388 16:389 17:390 18:391 19:8 20:392 21:393 22:18 23:394 24:24 25:395 26:396 27:397 28:16 29:63 30:338 31:35 32:42 33:398 34:59 35:399 36:400 37:401 
1 1:19 2:385 3:53 4:386 5:166 6:2 7:3 8:387 9:51 10:3 11:89 12:90 13:91 14:193 15:388 16:389 17:390 18:391 19:8 20:392 21:393 22:18 23:394 24:24 25:395 26:396 27:397 28:16 29:63 30:338 31:35 32:42 33:398 34:59 35:399 36:400 37:401 
1 1:22 2:385 3:53 4:386 5:166 6:2 7:3 8:387 9:51 10:3 11:89 12:90 13:91 14:193 15:388 16:389 17:390 18:391 19:8 20:392 21:393 22:18 23:394 24:24 25:395 26:396 27:397 28:16 29:63 30:338 31:35 32:42 33:398 34:59 35:399 36:400 37:401 
1 1:23 2:385 3:53 4:386 5:166 6:2 7:3 8:387 9:51 10:3 11:89 12:90 13:91 14:193 15:388 16:389 17:390 18:391 19:8 20:392 21:393 22:18 23:394 24:24 25:395 26:396 27:397 28:16 29:63 30:338 31:35 32:42 33:398 34:59 35:399 36:400 37:401 
0.3281895100369632 1:24 2:385 3:53 4:386 5:166 6:2 7:3 8:387 9:51 10:3 11:89 12:90 13:91 14:193 15:388 16:389 17:390 18:391 19:8 20:392 21:393 22:18 23:394 24:24 25:395 26:396 27:397 28:16 29:63 30:338 31:35 32:42 33:398 34:59 35:399 36:400 37:401 
0.7073959298282803 1:27 2:385 3:53 4:386 5:166 6:2 7:3 8:387 9:51 10:3 11:89 12:90 13:91 14:193 15:388 16:389 17:390 18:391 19:8 20:392 21:393 22:18 23:394 24:24 25:395 26:396 27:397 28:16 29:63 30:338 31:35 32:42 33:398 34:59 35:399 36:400 37:401 
1 1:28 2:385 3:53 4:386 5:166 6:2 7:3 8:387 9:51 10:3 11:89 12:90 13:91 14:193 15:388 16:389 17:390 18:391 19:8 20:392 21:393 22:18 23:394 24:24 25:395 26:396 27:397 28:16 29:63 30:338 31:35 32:42 33:398 34:59 35:399 36:400 37:401 
1 1:30 2:385 3:53 4:386 5:166 6:2 7:3 8:387 9:51 10:3 11:89 12:90 13:91 14:193 15:388 16:389 17:390 18:391 19:8 20:392 21:393 22:18 23:394 24:24 25:395 26:396 27:397 28:16 29:63 30:338 31:35 32:42 33:398 34:59 35:399 36:400 37:401 
0.1719340172024134 1:31 2:385 3:53 4:386 5:166 6:2 7:3 8:387 9:51 10:3 11:89 12:90 13:91 14:193 15:388 16:389 17:390 18:391 19:8 20:392 21:393 22:18 23:394 24:24 25:395 26:396 27:397 28:16 29:63 30:338 31:35 32:42 33:398 34:59 35:399 36:400 37:401 
0.7375527348373823 1:35 2:385 3:53 4:386 5:166 6:2 7:3 8:387 9:51 10:3 11:89 12:90 13:91 14:193 15:388 16:389 17:390 18:391 19:8 20:392 21:393 22:18 23:394 24:24 25:395 26:396 27:397 28:16 29:63 30:338 31:35 32:42 33:398 34:59 35:399 36:400 37:401 
1 1:2 2:402 3:2 4:3 5:403 6:404 7:341 8:405 9:18 10:3 11:359 12:277 13:406 14:111 15:407 16:345 17:18 18:278 19:27 20:408 21:345 22:348 23:71 24:2 25:403 26:404 
1 1:3 2:402 3:2 4:3 5:403 6:404 7:341 8:405 9:18 10:3 11:359 12:277 13:406 14:111 15:407 16:345 17:18 18:278 19:27 20:408 21:345 22:348 23:71 24:2 25:403 26:404 
0.7184880477866853 1:6 2:402 3:2 4:3 5:403 6:404 7:341 8:405 9:18 10:3 11:359 12:277 13:406 14:111 15:407 16:345 17:18 18:278 19:27 20:408 21:345 22:348 23:71 24:2 25:403 26:404 
1 1:8 2:402 3:2 4:3 5:403 6:404 7:341 8:405 9:18 10:3 11:359 12:277 13:406 14:111 15:407 16:345 17:18 18:278 19:27 20:408 21:345 22:348 23:71 24:2 25:403 26:404 
1 1:9 2:402 3:2 4:3 5:403 6:404 7:341 8:405 9:18 10:3 11:359 12:277 13:406 14:111 15:407 16:345 17:18 18:278 19:27 20:408 21:345 22:348 23:71 24:2 25:403 26:404 
1 1:13 2:402 3:2 4:3 5:403 6:404 7:341 8:405 9:18 10:3 11:359 12:277 13:406 14:111 15:407 16:345 17:18 18:278 19:27 20:408 21:345 22:348 23:71 24:2 25:403 26:404 
1 1:14 2:402 3:2 4:3 5:403 6:404 7:341 8:405 9:18 10:3 11:359 12:277 13:406 14:111 15:407 16:345 17:18 18:278 19:27 20:408 21:345 22:348 23:71 24:2 25:403 26:404 
1 1:18 2:402 3:2 4:3 5:403 6:404 7:341 8:405 9:18 10:3 11:359 12:277 13:406 14:111 15:407 16:345 17:18 18:278 19:27 20:408 21:345 22:348 23:71 24:2 25:403 26:404 
1 1:19 2:402 3:2 4:3 5:403 6:404 7:341 8:405 9:18 10:3 11:359 12:277 13:406 14:111 15:407 16:345 17:18 18:278 19:27 20:408 21:345 22:348 23:71 24:2 25:403 26:404 
1 1:20 2:402 3:2 4:3 5:403 6:404 7:341 8:405 9:18 10:3 11:359 12:277 13:406 14:111 15:407 16:345 17:18 18:278 19:27 20:408 21:345 22:348 23:71 24:2 25:403 26:404 
0.306787284364259 1:24 2:402 3:2 4:3 5:403 6:404 7:341 8:405 9:18 10:3 11:359 12:277 13:406 14:111 15:407 16:345 17:18 18:278 19:27 20:408 21:345 22:348 23:71 24:2 25:403 26:404 
0.3904848698622114 1:0 2:94 3:399 4:222 5:277 6:217 7:409 8:410 9:111 10:411 11:412 12:18 13:278 14:27 15:413 16:412 17:2 18:403 19:404 20:348 21:71 
1 1:1 2:94 3:399 4:222 5:277 6:217 7:409 8:410 9:111 10:411 11:412 12:18 13:278 14:27 15:413 16:412 17:2 18:403 19:404 20:348 21:71 
1 1:2 2:94 3:399 4:222 5:277 6:217 7:409 8:410 9:111 10:411 11:412 12:18 13:278 14:27 15:413 16:412 17:2 18:403 19:404 20:348 21:71 
1 1:6 2:94 3:399 4:222 5:277 6:217 7:409 8:410 9:111 10:411 11:412 12:18 13:278 14:27 15:413 16:412 17:2 18:403 19:404 20:348 21:71 
1 1:8 2:94 3:399 4:222 5:277 6:217 7:409 8:410 9:111 10:411 11:412 12:18 13:278 14:27 15:413 16:412 17:2 18:403 19:404 20:348 21:71 
1 1:9 2:94 3:399 4:222 5:277 6:217 7:409 8:410 9:111 10:411 11:412 12:18 13:278 14:27 15:413 16:412 17:2 18:403 19:404 20:348 21:71 
1 1:13 2:94 3:399 4:222 5:277 6:217 7:409 8:410 9:111 10:411 11:412 12:18 13:278 14:27 15:413 16:412 17:2 18:403 19:404 20:348 21:71 
1 1:14 2:94 3:399 4:222 5:277 6:217 7:409 8:410 9:111 10:411 11:412 12:18 13:278 14:27 15:413 16:412 17:2 18:403 19:404 20:348 21:71 
1 1:16 2:94 3:399 4:222 5:277 6:217 7:409 8:410 9:111 10:411 11:412 12:18 13:278 14:27 15:413 16:412 17:2 18:403 19:404 20:348 21:71 
1 1:1 2:249 3:414 4:101 5:415 6:18 7:3 8:399 9:222 10:416 11:16 12:341 13:111 14:417 15:412 16:18 17:278 18:27 19:266 20:31 21:414 22:395 23:35 24:418 25:412 
1 1:3 2:249 3:414 4:101 5:415 6:18 7:3 8:399 9:222 10:416 11:16 12:341 13:111 14:417 15:412 16:18 17:278 18:27 19:266 20:31 21:414 22:395 23:35 24:418 25:412 
1 1:5 2:249 3:414 4:101 5:415 6:18 7:3 8:399 9:222 10:416 11:16 12:341 13:111 14:417 15:412 16:18 17:278 18:27 19:266 20:31 21:414 22:395 23:35 24:418 25:412 
0.4453125339645706 1:6 2:249 3:414 4:101 5:415 6:18 7:3 8:399 9:222 10:416 11:16 12:341 13:111 14:417 15:412 16:18 17:278 18:27 19:266 20:31 21:414 22:395 23:35 24:418 25:412 
1 1:7 2:249 3:414 4:101 5:415 6:18 7:3 8:399 9:222 10:416 11:16 12:341 13:111 14:417 15:412 16:18 17:278 18:27 19:266 20:31 21:414 22:395 23:35 24:418 25:412 
1 1:10 2:249 3:414 4:101 5:415 6:18 7:3 8:399 9:222 10:416 11:16 12:341 13:111 14:417 15:412 16:18 17:278 18:27 19:266 20:31 21:414 22:395 23:35 24:418 25:412 
1 1:12 2:249 3:414 4:101 5:415 6:18 7:3 8:399 9:222 10:416 11:16 12:341 13:111 14:417 15:412 16:18 17:278 18:27 19:266 20:31 21:414 22:395 23:35 24:418 25:412 
1 1:13 2:249 3:414 4:101 5:415 6:18 7:3 8:399 9:222 10:416 11:16 12:341 13:111 14:417 15:412 16:18 17:278 18:27 19:266 20:31 21:414 22:395 23:35 24:418 25:412 
1 1:17 2:249 3:414 4:101 5:415 6:18 7:3 8:399 9:222 10:416 11:16 12:341 13:111 14:417 15:412 16:18 17:278 18:27 19:266 20:31 21:414 22:395 23:35 24:418 25:412 
1 1:18 2:249 3:414 4:101 5:415 6:18 7:3 8:399 9:222 10:416 11:16 12:341 13:111 14:417 15:412 16:18 17:278 18:27 19:266 20:31 21:414 22:395 23:35 24:418 25:412 
0.664742699173194 1:19 2:249 3:414 4:101 5:415 6:18 7:3 8:399 9:222 10:416 11:16 12:341 13:111 14:417 15:412 16:18 17:278 18:27 19:266 20:31 21:414 22:395 23:35 24:418 25:412 
0.5000890054603609 1:23 2:249 3:414 4:101 5:415 6:18 7:3 8:399 9:222 10:416 11:16 12:341 13:111 14:417 15:412 16:18 17:278 18:27 19:266 20:31 21:414 22:395 23:35 24:418 25:412 
1 1:1 2:419 3:3 4:420 5:421 6:2 7:403 8:404 9:18 10:422 11:16 12:84 13:423 14:424 15:111 16:143 17:425 18:120 19:426 20:18 21:278 22:427 23:428 
1 1:2 2:419 3:3 4:420 5:421 6:2 7:403 8:404 9:18 10:422 11:16 12:84 13:423 14:424 15:111 16:143 17:425 18:120 19:426 20:18 21:278 22:427 23:428 
0.03487248011683349 1:3 2:419 3:3 4:420 5:421 6:2 7:403 8:404 9:18 10:422 11:16 12:84 13:423 14:424 15:111 16:143 17:425 18:120 19:426 20:18 21:278 22:427 23:428 
0.6722732315363636 1:6 2:419 3:3 4:420 5:421 6:2 7:403 8:404 9:18 10:422 11:16 12:84 13:423 14:424 15:111 16:143 17:425 18:120 19:426 20:18 21:278 22:427 23:428 
1 1:8 2:419 3:3 4:420 5:421 6:2 7:403 8:404 9:18 10:422 11:16 12:84 13:423 14:424 15:111 16:143 17:425 18:120 19:426 20:18 21:278 22:427 23:428 
1 1:10 2:419 3:3 4:420 5:421 6:2 7:403 8:404 9:18 10:422 11:16 12:84 13:423 14:424 15:111 16:143 17:425 18:120 19:426 20:18 21:278 22:427 23:428 
1 1:11 2:419 3:3 4:420 5:421 6:2 7:403 8:404 9:18 10:422 11:16 12:84 13:423 14:424 15:111 16:143 17:425 18:120 19:426 20:18 21:278 22:427 23:428 
0.638128841406112 1:14 2:419 3:3 4:420 5:421 6:2 7:403 8:404 9:18 10:422 11:16 12:84 13:423 14:424 15:111 16:143 17:425 18:120 19:426 20:18 21:278 22:427 23:428 
0.004294741040608511 1:15 2:419 3:3 4:420 5:421 6:2 7:403 8:404 9:18 10:422 11:16 12:84 13:423 14:424 15:111 16:143 17:425 18:120 19:426 20:18 21:278 22:427 23:428 
0.6799965882849518 1:16 2:419 3:3 4:420 5:421 6:2 7:403 8:404 9:18 10:422 11:16 12:84 13:423 14:424 15:111 16:143 17:425 18:120 19:426 20:18 21:278 22:427 23:428 
0.9459255256038299 1:17 2:419 3:3 4:420 5:421 6:2 7:403 8:404 9:18 10:422 11:16 12:84 13:423 14:424 15:111 16:143 17:425 18:120 19:426 20:18 21:278 22:427 23:428 
0.1855356644582977 1:20 2:419 3:3 4:420 5:421 6:2 7:403 8:404 9:18 10:422 11:16 12:84 13:423 14:424 15:111 16:143 17:425 18:120 19:426 20:18 21:278 22:427 23:428 
1 1:21 2:419 3:3 4:420 5:421 6:2 7:403 8:404 9:18 10:422 11:16 12:84 13:423 14:424 15:111 16:143 17:425 18:120 19:426 20:18 21:278 22:427 23:428 
1 1:0 2:429 3:430 4:277 5:24 6:431 7:432 8:433 9:434 
0.03344497333785695 1:1 2:429 3:430 4:277 5:24 6:431 7:432 8:433 9:434 
0.1910165772041992 1:3 2:429 3:430 4:277 5:24 6:431 7:432 8:433 9:434 
0.5577562882396327 1:7 2:429 3:430 4:277 5:24 6:431 7:432 8:433 9:434 
1 1:1 2:249 3:435 4:341 5:2 6:436 7:437 8:415 9:18 10:422 11:277 12:406 13:111 14:143 15:438 16:120 17:426 
0.5786917366951696 1:2 2:249 3:435 4:341 5:2 6:436 7:437 8:415 9:18 10:422 11:277 12:406 13:111 14:143 15:438 16:120 17:426 
1 1:5 2:249 3:435 4:341 5:2 6:436 7:437 8:415 9:18 10:422 11:277 12:406 13:111 14:143 15:438 16:120 17:426 
1 1:6 2:249 3:435 4:341 5:2 6:436 7:437 8:415 9:18 10:422 11:277 12:406 13:111 14:143 15:438 16:120 17:426 
1 1:8 2:249 3:435 4:341 5:2 6:436 7:437 8:415 9:18 10:422 11:277 12:406 13:111 14:143 15:438 16:120 17:426 
1 1:12 2:249 3:435 4:341 5:2 6:436 7:437 8:415 9:18 10:422 11:277 12:406 13:111 14:143 15:438 16:120 17:426 
1 1:13 2:249 3:435 4:341 5:2 6:436 7:437 8:415 9:18 10:422 11:277 12:406 13:111 14:143 15:438 16:120 17:426 
0.2013164623423778 1:14 2:249 3:435 4:341 5:2 6:436 7:437 8:415 9:18 10:422 11:277 12:406 13:111 14:143 15:438 16:120 17:426 
0.6578204884934773 1:3 2:439 3:440 4:441 5:442 6:443 7:105 8:302 9:444 10:8 11:445 12:446 13:447 14:448 15:449 16:16 17:143 18:450 19:24 20:451 
1 1:4 2:439 3:440 4:441 5:442 6:443 7:105 8:302 9:444 10:8 11:445 12:446 13:447 14:448 15:449 16:16 17:143 18:450 19:24 20:451 
1 1:6 2:439 3:440 4:441 5:442 6:443 7:105 8:302 9:444 10:8 11:445 12:446 13:447 14:448 15:449 16:16 17:143 18:450 19:24 20:451 
1 1:10 2:439 3:440 4:441 5:442 6:443 7:105 8:302 9:444 10:8 11:445 12:446 13:447 14:448 15:449 16:16 17:143 18:450 19:24 20:451 
1 1:11 2:439 3:440 4:441 5:442 6:443 7:105 8:302 9:444 10:8 11:445 12:446 13:447 14:448 15:449 16:16 17:143 18:450 19:24 20:451 
0.9152363575305695 1:12 2:439 3:440 4:441 5:442 6:443 7:105 8:302 9:444 10:8 11:445 12:446 13:447 14:448 15:449 16:16 17:143 18:450 19:24 20:451 
0.4815847649329563 1:18 2:439 3:440 4:441 5:442 6:443 7:105 8:302 9:444 10:8 11:445 12:446 13:447 14:448 15:449 16:16 17:143 18:450 19:24 20:451 
1 1:1 2:249 3:120 4:375 5:452 6:453 7:8 8:446 9:447 10:31 11:454 12:18 13:439 14:440 15:105 16:3 17:455 18:5 19:456 20:8 21:3 22:457 23:35 24:24 25:458 26:459 27:59 28:164 29:460 30:293 31:375 32:461 
0.8688787154410178 1:2 2:249 3:120 4:375 5:452 6:453 7:8 8:446 9:447 10:31 11:454 12:18 13:439 14:440 15:105 16:3 17:455 18:5 19:456 20:8 21:3 22:457 23:35 24:24 25:458 26:459 27:59 28:164 29:460 30:293 31:375 32:461 
0.7399814170738934 1:7 2:249 3:120 4:375 5:452 6:453 7:8 8:446 9:447 10:31 11:454 12:18 13:439 14:440 15:105 16:3 17:455 18:5 19:456 20:8 21:3 22:457 23:35 24:24 25:458 26:459 27:59 28:164 29:460 30:293 31:375 32:461 
0.5901594072750528 1:11 2:249 3:120 4:375 5:452 6:453 7:8 8:446 9:447 10:31 11:454 12:18 13:439 14:440 15:105 16:3 17:455 18:5 19:456 20:8 21:3 22:457 23:35 24:24 25:458 26:459 27:59 28:164 29:460 30:293 31:375 32:461 
1 1:12 2:249 3:120 4:375 5:452 6:453 7:8 8:446 9:447 10:31 11:454 12:18 13:439 14:440 15:105 16:3 17:455 18:5 19:456 20:8 21:3 22:457 23:35 24:24 25:458 26:459 27:59 28:164 29:460 30:293 31:375 32:461 
1 1:14 2:249 3:120 4:375 5:452 6:453 7:8 8:446 9:447 10:31 11:454 12:18 13:439 14:440 15:105 16:3 17:455 18:5 19:456 20:8 21:3 22:457 23:35 24:24 25:458 26:459 27:59 28:164 29:460 30:293 31:375 32:461 
1 1:15 2:249 3:120 4:375 5:452 6:453 7:8 8:446 9:447 10:31 11:454 12:18 13:439 14:440 15:105 16:3 17:455 18:5 19:456 20:8 21:3 22:457 23:35 24:24 25:458 26:459 27:59 28:164 29:460 30:293 31:375 32:461 
0.8957808819763846 1:19 2:249 3:120 4:375 5:452 6:453 7:8 8:446 9:447 10:31 11:454 12:18 13:439 14:440 15:105 16:3 17:455 18:5 19:456 20:8 21:3 22:457 23:35 24:24 25:458 26:459 27:59 28:164 29:460 30:293 31:375 32:461 
1 1:20 2:249 3:120 4:375 5:452 6:453 7:8 8:446 9:447 10:31 11:454 12:18 13:439 14:440 15:105 16:3 17:455 18:5 19:456 20:8 21:3 22:457 23:35 24:24 25:458 26:459 27:59 28:164 29:460 30:293 31:375 32:461 
1 1:22 2:249 3:120 4:375 5:452 6:453 7:8 8:446 9:447 10:31 11:454 12:18 13:439 14:440 15:105 16:3 17:455 18:5 19:456 20:8 21:3 22:457 23:35 24:24 25:458 26:459 27:59 28:164 29:460 30:293 31:375 32:461 
1 1:23 2:249 3:120 4:375 5:452 6:453 7:8 8:446 9:447 10:31 11:454 12:18 13:439 14:440 15:105 16:3 17:455 18:5 19:456 20:8 21:3 22:457 23:35 24:24 25:458 26:459 27:59 28:164 29:460 30:293 31:375 32:461 
1 1:24 2:249 3:120 4:375 5:452 6:453 7:8 8:446 9:447 10:31 11:454 12:18 13:439 14:440 15:105 16:3 17:455 18:5 19:456 20:8 21:3 22:457 23:35 24:24 25:458 26:459 27:59 28:164 29:460 30:293 31:375 32:461 
1 1:29 2:249 3:120 4:375 5:452 6:453 7:8 8:446 9:447 10:31 11:454 12:18 13:439 14:440 15:105 16:3 17:455 18:5 19:456 20:8 21:3 22:457 23:35 24:24 25:458 26:459 27:59 28:164 29:460 30:293 31:375 32:461 
1 1:30 2:249 3:120 4:375 5:452 6:453 7:8 8:446 9:447 10:31 11:454 12:18 13:439 14:440 15:105 16:3 17:455 18:5 19:456 20:8 21:3 22:457 23:35 24:24 25:458 26:459 27:59 28:164 29:460 30:293 31:375 32:461 
1 1:0 2:94 3:453 4:18 5:462 6:8 7:24 8:463 9:206 10:3 11:464 12:29 13:421 14:465 15:18 16:105 17:3 18:466 19:5 20:217 21:467 22:468 23:469 24:470 25:471 
1 1:1 2:94 3:453 4:18 5:462 6:8 7:24 8:463 9:206 10:3 11:464 12:29 13:421 14:465 15:18 16:105 17:3 18:466 19:5 20:217 21:467 22:468 23:469 24:470 25:471 
1 1:5 2:94 3:453 4:18 5:462 6:8 7:24 8:463 9:206 10:3 11:464 12:29 13:421 14:465 15:18 16:105 17:3 18:466 19:5 20:217 21:467 22:468 23:469 24:470 25:471 
1 1:6 2:94 3:453 4:18 5:462 6:8 7:24 8:463 9:206 10:3 11:464 12:29 13:421 14:465 15:18 16:105 17:3 18:466 19:5 20:217 21:467 22:468 23:469 24:470 25:471 
0.226180091731143 1:10 2:94 3:453 4:18 5:462 6:8 7:24 8:463 9:206 10:3 11:464 12:29 13:421 14:465 15:18 16:105 17:3 18:466 19:5 20:217 21:467 22:468 23:469 24:470 25:471 
1 1:11 2:94 3:453 4:18 5:462 6:8 7:24 8:463 9:206 10:3 11:464 12:29 13:421 14:465 15:18 16:105 17:3 18:466 19:5 20:217 21:467 22:468 23:469 24:470 25:471 
1 1:12 2:94 3:453 4:18 5:462 6:8 7:24 8:463 9:206 10:3 11:464 12:29 13:421 14:465 15:18 16:105 17:3 18:466 19:5 20:217 21:467 22:468 23:469 24:470 25:471 
1 1:15 2:94 3:453 4:18 5:462 6:8 7:24 8:463 9:206 10:3 11:464 12:29 13:421 14:465 15:18 16:105 17:3 18:466 19:5 20:217 21:467 22:468 23:469 24:470 25:471 
1 1:16 2:94 3:453 4:18 5:462 6:8 7:24 8:463 9:206 10:3 11:464 12:29 13:421 14:465 15:18 16:105 17:3 18:466 19:5 20:217 21:467 22:468 23:469 24:470 25:471 
1 1:22 2:94 3:453 4:18 5:462 6:8 7:24 8:463 9:206 10:3 11:464 12:29 13:421 14:465 15:18 16:105 17:3 18:466 19:5 20:217 21:467 22:468 23:469 24:470 25:471 
1 1:23 2:94 3:453 4:18 5:462 6:8 7:24 8:463 9:206 10:3 11:464 12:29 13:421 14:465 15:18 16:105 17:3 18:466 19:5 20:217 21:467 22:468 23:469 24:470 25:471 
0.5795891555113846 1:1 2:472 3:446 4:447 5:473 6:342 7:8 8:474 9:101 10:3 11:463 
1 1:2 2:472 3:446 4:447 5:473 6:342 7:8 8:474 9:101 10:3 11:463 
1 1:3 2:472 3:446 4:447 5:473 6:342 7:8 8:474 9:101 10:3 11:463 
1 1:8 2:472 3:446 4:447 5:473 6:342 7:8 8:474 9:101 10:3 11:463 
1 1:9 2:472 3:446 4:447 5:473 6:342 7:8 8:474 9:101 10:3 11:463 
0.553037009297052 1:0 2:94 3:143 4:475 5:476 6:477 7:3 8:478 9:111 10:181 11:143 12:479 13:433 
0.8711016651689965 1:5 2:94 3:143 4:475 5:476 6:477 7:3 8:478 9:111 10:181 11:143 12:479 13:433 
0.9319588046559573 1:6 2:94 3:143 4:475 5:476 6:477 7:3 8:478 9:111 10:181 11:143 12:479 13:433 
0.5445335636613673 1:11 2:94 3:143 4:475 5:476 6:477 7:3 8:478 9:111 10:181 11:143 12:479 13:433 
0.4138433967669378 1:0 2:446 3:447 4:480 5:44 6:481 7:482 8:483 
1 1:1 2:446 3:447 4:480 5:44 6:481 7:482 8:483 
1 1:4 2:446 3:447 4:480 5:44 6:481 7:482 8:483 
1 1:5 2:446 3:447 4:480 5:44 6:481 7:482 8:483 
0.4654416332713835 1:0 2:484 3:371 4:485 5:111 6:143 7:486 8:18 9:278 10:143 11:487 12:18 13:2 14:488 15:489 16:341 
1 1:1 2:484 3:371 4:485 5:111 6:143 7:486 8:18 9:278 10:143 11:487 12:18 13:2 14:488 15:489 16:341 
1 1:4 2:484 3:371 4:485 5:111 6:143 7:486 8:18 9:278 10:143 11:487 12:18 13:2 14:488 15:489 16:341 
1 1:5 2:484 3:371 4:485 5:111 6:143 7:486 8:18 9:278 10:143 11:487 12:18 13:2 14:488 15:489 16:341 
1 1:8 2:484 3:371 4:485 5:111 6:143 7:486 8:18 9:278 10:143 11:487 12:18 13:2 14:488 15:489 16:341 
1 1:9 2:484 3:371 4:485 5:111 6:143 7:486 8:18 9:278 10:143 11:487 12:18 13:2 14:488 15:489 16:341 
1 1:12 2:484 3:371 4:485 5:111 6:143 7:486 8:18 9:278 10:143 11:487 12:18 13:2 14:488 15:489 16:341 
0.465494679910375 1:13 2:484 3:371 4:485 5:111 6:143 7:486 8:18 9:278 10:143 11:487 12:18 13:2 14:488 15:489 16:341 
0.9817906700978802 1:0 2:94 3:478 4:5 5:24 6:490 7:18 8:491 9:18 10:492 11:35 12:493 13:494 
0.4675042264198971 1:5 2:94 3:478 4:5 5:24 6:490 7:18 8:491 9:18 10:492 11:35 12:493 13:494 
0.5147877435203506 1:6 2:94 3:478 4:5 5:24 6:490 7:18 8:491 9:18 10:492 11:35 12:493 13:494 
0.9755743606320038 1:11 2:94 3:478 4:5 5:24 6:490 7:18 8:491 9:18 10:492 11:35 12:493 13:494 
1 1:0 2:439 3:440 4:217 5:105 6:2 7:3 8:463 9:166 10:302 11:495 12:389 13:496 14:2 15:446 16:447 17:8 18:497 19:82 
1 1:1 2:439 3:440 4:217 5:105 6:2 7:3 8:463 9:166 10:302 11:495 12:389 13:496 14:2 15:446 16:447 17:8 18:497 19:82 
1 1:5 2:439 3:440 4:217 5:105 6:2 7:3 8:463 9:166 10:302 11:495 12:389 13:496 14:2 15:446 16:447 17:8 18:497 19:82 
1 1:6 2:439 3:440 4:217 5:105 6:2 7:3 8:463 9:166 10:302 11:495 12:389 13:496 14:2 15:446 16:447 17:8 18:497 19:82 
1 1:8 2:439 3:440 4:217 5:105 6:2 7:3 8:463 9:166 10:302 11:495 12:389 13:496 14:2 15:446 16:447 17:8 18:497 19:82 
1 1:10 2:439 3:440 4:217 5:105 6:2 7:3 8:463 9:166 10:302 11:495 12:389 13:496 14:2 15:446 16:447 17:8 18:497 19:82 
0.5467734380205233 1:11 2:439 3:440 4:217 5:105 6:2 7:3 8:463 9:166 10:302 11:495 12:389 13:496 14:2 15:446 16:447 17:8 18:497 19:82 
0.6526633293479579 1:14 2:439 3:440 4:217 5:105 6:2 7:3 8:463 9:166 10:302 11:495 12:389 13:496 14:2 15:446 16:447 17:8 18:497 19:82 
0.9512505913953527 1:17 2:439 3:440 4:217 5:105 6:2 7:3 8:463 9:166 10:302 11:495 12:389 13:496 14:2 15:446 16:447 17:8 18:497 19:82 
1 1:0 2:498 3:499 4:500 5:501 6:446 7:447 8:502 9:482 10:18 11:503 12:504 13:482 14:505 15:70 16:71 17:16 18:143 19:506 20:8 21:143 22:507 23:24 24:451 
1 1:3 2:498 3:499 4:500 5:501 6:446 7:447 8:502 9:482 10:18 11:503 12:504 13:482 14:505 15:70 16:71 17:16 18:143 19:506 20:8 21:143 22:507 23:24 24:451 
0.7471990072597644 1:4 2:498 3:499 4:500 5:501 6:446 7:447 8:502 9:482 10:18 11:503 12:504 13:482 14:505 15:70 16:71 17:16 18:143 19:506 20:8 21:143 22:507 23:24 24:451 
0.4697140507527744 1:7 2:498 3:499 4:500 5:501 6:446 7:447 8:502 9:482 10:18 11:503 12:504 13:482 14:505 15:70 16:71 17:16 18:143 19:506 20:8 21:143 22:507 23:24 24:451 
1 1:10 2:498 3:499 4:500 5:501 6:446 7:447 8:502 9:482 10:18 11:503 12:504 13:482 14:505 15:70 16:71 17:16 18:143 19:506 20:8 21:143 22:507 23:24 24:451 
1 1:11 2:498 3:499 4:500 5:501 6:446 7:447 8:502 9:482 10:18 11:503 12:504 13:482 14:505 15:70 16:71 17:16 18:143 19:506 20:8 21:143 22:507 23:24 24:451 
0.9587197931204625 1:13 2:498 3:499 4:500 5:501 6:446 7:447 8:502 9:482 10:18 11:503 12:504 13:482 14:505 15:70 16:71 17:16 18:143 19:506 20:8 21:143 22:507 23:24 24:451 
0.08996028433420632 1:14 2:498 3:499 4:500 5:501 6:446 7:447 8:502 9:482 10:18 11:503 12:504 13:482 14:505 15:70 16:71 17:16 18:143 19:506 20:8 21:143 22:507 23:24 24:451 
0.5100302367229261 1:16 2:498 3:499 4:500 5:501 6:446 7:447 8:502 9:482 10:18 11:503 12:504 13:482 14:505 15:70 16:71 17:16 18:143 19:506 20:8 21:143 22:507 23:24 24:451 
0.4313078324269437 1:22 2:498 3:499 4:500 5:501 6:446 7:447 8:502 9:482 10:18 11:503 12:504 13:482 14:505 15:70 16:71 17:16 18:143 19:506 20:8 21:143 22:507 23:24 24:451 
0.4511798683482252 1:0 2:403 3:508 4:509 5:510 6:29 7:511 8:512 9:513 10:439 11:440 12:441 13:449 14:18 15:3 16:514 17:515 18:516 19:35 20:439 21:440 22:441 23:517 
0.148894748967125 1:6 2:403 3:508 4:509 5:510 6:29 7:511 8:512 9:513 10:439 11:440 12:441 13:449 14:18 15:3 16:514 17:515 18:516 19:35 20:439 21:440 22:441 23:517 
1 1:8 2:403 3:508 4:509 5:510 6:29 7:511 8:512 9:513 10:439 11:440 12:441 13:449 14:18 15:3 16:514 17:515 18:516 19:35 20:439 21:440 22:441 23:517 
0.4664865245715241 1:9 2:403 3:508 4:509 5:510 6:29 7:511 8:512 9:513 10:439 11:440 12:441 13:449 14:18 15:3 16:514 17:515 18:516 19:35 20:439 21:440 22:441 23:517 
0.5103729977713021 1:14 2:403 3:508 4:509 5:510 6:29 7:511 8:512 9:513 10:439 11:440 12:441 13:449 14:18 15:3 16:514 17:515 18:516 19:35 20:439 21:440 22:441 23:517 
1 1:15 2:403 3:508 4:509 5:510 6:29 7:511 8:512 9:513 10:439 11:440 12:441 13:449 14:18 15:3 16:514 17:515 18:516 19:35 20:439 21:440 22:441 23:517 
0.06813085370035527 1:16 2:403 3:508 4:509 5:510 6:29 7:511 8:512 9:513 10:439 11:440 12:441 13:449 14:18 15:3 16:514 17:515 18:516 19:35 20:439 21:440 22:441 23:517 
0.6436579152899576 1:21 2:403 3:508 4:509 5:510 6:29 7:511 8:512 9:513 10:439 11:440 12:441 13:449 14:18 15:3 16:514 17:515 18:516 19:35 20:439 21:440 22:441 23:517 
0.6017362931379098 1:0 2:94 3:514 4:518 5:516 6:35 7:3 8:519 9:5 10:520 11:521 12:522 13:449 14:18 15:120 16:523 17:524 18:35 19:520 20:525 21:526 
0.5637554524120307 1:5 2:94 3:514 4:518 5:516 6:35 7:3 8:519 9:5 10:520 11:521 12:522 13:449 14:18 15:120 16:523 17:524 18:35 19:520 20:525 21:526 
1 1:6 2:94 3:514 4:518 5:516 6:35 7:3 8:519 9:5 10:520 11:521 12:522 13:449 14:18 15:120 16:523 17:524 18:35 19:520 20:525 21:526 
0.5805541016661444 1:8 2:94 3:514 4:518 5:516 6:35 7:3 8:519 9:5 10:520 11:521 12:522 13:449 14:18 15:120 16:523 17:524 18:35 19:520 20:525 21:526 
0.06600251132182486 1:11 2:94 3:514 4:518 5:516 6:35 7:3 8:519 9:5 10:520 11:521 12:522 13:449 14:18 15:120 16:523 17:524 18:35 19:520 20:525 21:526 
1 1:13 2:94 3:514 4:518 5:516 6:35 7:3 8:519 9:5 10:520 11:521 12:522 13:449 14:18 15:120 16:523 17:524 18:35 19:520 20:525 21:526 
0.6593443554582386 1:14 2:94 3:514 4:518 5:516 6:35 7:3 8:519 9:5 10:520 11:521 12:522 13:449 14:18 15:120 16:523 17:524 18:35 19:520 20:525 21:526 
0.7573143006511935 1:19 2:94 3:514 4:518 5:516 6:35 7:3 8:519 9:5 10:520 11:521 12:522 13:449 14:18 15:120 16:523 17:524 18:35 19:520 20:525 21:526 
1 1:1 2:527 3:520 4:521 5:29 6:520 7:525 8:98 9:528 10:2 11:529 
1 1:2 2:527 3:520 4:521 5:29 6:520 7:525 8:98 9:528 10:2 11:529 
1 1:4 2:527 3:520 4:521 5:29 6:520 7:525 8:98 9:528 10:2 11:529 
1 1:5 2:527 3:520 4:521 5:29 6:520 7:525 8:98 9:528 10:2 11:529 
1 1:9 2:527 3:520 4:521 5:29 6:520 7:525 8:98 9:528 10:2 11:529 
1 1:0 2:530 3:80 4:18 5:531 6:16 7:532 8:35 9:3 10:533 11:227 12:35 13:534 14:535 15:59 16:536 17:18 18:98 19:537 20:397 21:18 22:538 23:539 24:29 25:540 26:8 27:541 28:542 
1 1:1 2:530 3:80 4:18 5:531 6:16 7:532 8:35 9:3 10:533 11:227 12:35 13:534 14:535 15:59 16:536 17:18 18:98 19:537 20:397 21:18 22:538 23:539 24:29 25:540 26:8 27:541 28:542 
1 1:5 2:530 3:80 4:18 5:531 6:16 7:532 8:35 9:3 10:533 11:227 12:35 13:534 14:535 15:59 16:536 17:18 18:98 19:537 20:397 21:18 22:538 23:539 24:29 25:540 26:8 27:541 28:542 
1 1:7 2:530 3:80 4:18 5:531 6:16 7:532 8:35 9:3 10:533 11:227 12:35 13:534 14:535 15:59 16:536 17:18 18:98 19:537 20:397 21:18 22:538 23:539 24:29 25:540 26:8 27:541 28:542 
1 1:8 2:530 3:80 4:18 5:531 6:16 7:532 8:35 9:3 10:533 11:227 12:35 13:534 14:535 15:59 16:536 17:18 18:98 19:537 20:397 21:18 22:538 23:539 24:29 25:540 26:8 27:541 28:542 
1 1:11 2:530 3:80 4:18 5:531 6:16 7:532 8:35 9:3 10:533 11:227 12:35 13:534 14:535 15:59 16:536 17:18 18:98 19:537 20:397 21:18 22:538 23:539 24:29 25:540 26:8 27:541 28:542 
1 1:14 2:530 3:80 4:18 5:531 6:16 7:532 8:35 9:3 10:533 11:227 12:35 13:534 14:535 15:59 16:536 17:18 18:98 19:537 20:397 21:18 22:538 23:539 24:29 25:540 26:8 27:541 28:542 
1 1:26 2:530 3:80 4:18 5:531 6:16 7:532 8:35 9:3 10:533 11:227 12:35 13:534 14:535 15:59 16:536 17:18 18:98 19:537 20:397 21:18 22:538 23:539 24:29 25:540 26:8 27:541 28:542 
0.7505431323199727 1:4 2:543 3:18 4:544 5:29 6:545 7:546 8:547 9:548 10:317 11:549 12:18 13:550 14:16 15:257 16:551 17:552 18:435 19:553 20:280 21:18 22:554 23:326 24:555 25:29 26:556 27:557 28:16 29:558 30:559 
1 1:5 2:543 3:18 4:544 5:29 6:545 7:546 8:547 9:548 10:317 11:549 12:18 13:550 14:16 15:257 16:551 17:552 18:435 19:553 20:280 21:18 22:554 23:326 24:555 25:29 26:556 27:557 28:16 29:558 30:559 
1 1:8 2:543 3:18 4:544 5:29 6:545 7:546 8:547 9:548 10:317 11:549 12:18 13:550 14:16 15:257 16:551 17:552 18:435 19:553 20:280 21:18 22:554 23:326 24:555 25:29 26:556 27:557 28:16 29:558 30:559 
1 1:9 2:543 3:18 4:544 5:29 6:545 7:546 8:547 9:548 10:317 11:549 12:18 13:550 14:16 15:257 16:551 17:552 18:435 19:553 20:280 21:18 22:554 23:326 24:555 25:29 26:556 27:557 28:16 29:558 30:559 
1 1:13 2:543 3:18 4:544 5:29 6:545 7:546 8:547 9:548 10:317 11:549 12:18 13:550 14:16 15:257 16:551 17:552 18:435 19:553 20:280 21:18 22:554 23:326 24:555 25:29 26:556 27:557 28:16 29:558 30:559 
1 1:14 2:543 3:18 4:544 5:29 6:545 7:546 8:547 9:548 10:317 11:549 12:18 13:550 14:16 15:257 16:551 17:552 18:435 19:553 20:280 21:18 22:554 23:326 24:555 25:29 26:556 27:557 28:16 29:558 30:559 
1 1:16 2:543 3:18 4:544 5:29 6:545 7:546 8:547 9:548 10:317 11:549 12:18 13:550 14:16 15:257 16:551 17:552 18:435 19:553 20:280 21:18 22:554 23:326 24:555 25:29 26:556 27:557 28:16 29:558 30:559 
